#include "nnom.h"

/* Weights, bias and Q format */
#define TENSOR_CONV1D_KERNEL_0 {17, 34, -17, -33, -73, 67, 43, 68, -2, 42, -58, -19, 10, -44, 4, 31, 59, 65, -33, -62, -18, 13, 16, -29, 16, 56, 75, 29, 64, 30, 30, -26, -16, 23, -23, -24, 62, -13, 11, 50, 72, -39, 68, 78, 37, -20, 40, 60, 28, 41, 42, 14, -24, -43, -79, 11, -10, -60, 80, -68}

#define TENSOR_CONV1D_KERNEL_0_DEC_BITS {8}

#define TENSOR_CONV1D_BIAS_0 {-26, 0, -52, 41, 15, 35, -9, -52, -68, 36, -26, 5}

#define TENSOR_CONV1D_BIAS_0_DEC_BITS {12}

#define CONV1D_BIAS_LSHIFT {1}

#define CONV1D_OUTPUT_RSHIFT {8}

#define TENSOR_CONV1D_1_KERNEL_0 {-52, -37, 52, 4, 32, -64, 5, 53, -41, -16, 30, -89, 50, 21, 9, 30, -17, -42, -42, -48, 25, -51, 10, -20, -43, 45, -14, -54, -22, -27, 11, 65, 56, 66, 12, -4, 25, 9, -60, -54, 13, 36, 70, 67, 59, 60, 64, -18, -44, -9, -44, -45, -41, -34, -64, -35, -68, -11, 2, 23, 55, 25, -14, 25, 22, 42, 43, -53, -4, -56, -13, 55, 17, -3, -53, 60, -51, -41, 28, -26, -21, 52, 22, 46, 47, 47, 29, -11, -41, 3, -53, 18, 59, -48, 5, -24, -17, -19, 39, -18, -39, -8, -24, 35, 49, 64, 61, 33}

#define TENSOR_CONV1D_1_KERNEL_0_DEC_BITS {8}

#define TENSOR_CONV1D_1_BIAS_0 {3, -12, -26, -40, -12, -70, -39, -9, -19, -27, -17, -17}

#define TENSOR_CONV1D_1_BIAS_0_DEC_BITS {11}

#define CONV1D_1_BIAS_LSHIFT {2}

#define CONV1D_1_OUTPUT_RSHIFT {8}

#define TENSOR_CONV1D_2_KERNEL_0 {-32, 20, 13, 46, 41, 24, -5, 32, 19, -1, -42, -37, -58, 9, -12, -1, -34, -11, -42, -5, -37, 17, -5, 33, 31, 13, -43, -3, 8, 37, 24, 31, 7, 26, 29, 13, -23, -32, -42, -2, 44, 29, -21, 45, -40, -40, -25, -29, -30, -20, -41, 40, -16, -51, -61, -40, 58, 64, 83, 6, 39, -17, -61, -42, -20, -19, 19, -43, 6, -34, 22, -61, -9, 6, -6, -44, 25, -7, -49, -53, -10, -5, 31, 1, 57, 44, 56, 16, -7, -34, -53, 1, 20, 36, 38, 20, -16, -38, -50, -19, -12, 40, 27, 48, -39, -47, -37, 6, 16, 32, -15, 2, 32, 14, -28, -40, -57, -56, -4, 7, 47, 17, 62, 66, -2, -30, -35, -45, -76, -55, -25, -12, 16, -10, -30, -40, -42, -8, 21, 28, 53, 40, 21, 16, -63, -68, -53, -24, 14, 32, 63, 22, 14, 13, 0, -57}

#define TENSOR_CONV1D_2_KERNEL_0_DEC_BITS {8}

#define TENSOR_CONV1D_2_BIAS_0 {-9, -64, -70, -80, -95, 36, -80, -65, -56, -115, -68, -95}

#define TENSOR_CONV1D_2_BIAS_0_DEC_BITS {13}

#define CONV1D_2_BIAS_LSHIFT {0}

#define CONV1D_2_OUTPUT_RSHIFT {8}

#define TENSOR_LSTM_LSTM_CELL_KERNEL_0 {13, -9, 44, 47, -41, -46, 27, -64, -3, -36, 29, 34, 45, -18, 49, -14, 29, 1, 13, 51, 4, 12, 6, -26, 38, 42, -28, -30, -22, -11, 13, -26, -11, 24, -24, 59, -18, 25, -24, 33, -32, 44, 21, -11, -2, 17, 26, 32, 44, 22, 48, -25, 26, -7, -37, -7, -20, 37, 29, 2, 12, 21, 24, -38, -18, 12, 2, -5, 45, -55, 11, 18, 33, 24, 17, -1, 16, -19, 32, -35, -4, -25, 7, 45, 33, 18, -16, -52, 38, -3, 37, -6, 26, -10, -31, -44, -36, 20, 13, -6, -25, -1, 31, -62, -18, 53, 15, 7, 11, 30, 26, -63, 48, 32, 46, -20, 20, 18, 16, 42, -16, 50, -32, 45, 53, -18, 11, -64, -36, -18, 53, -33, -35, -1, 9, -25, 19, -25, -36, -28, 29, 3, 34, -16, 12, -37, -52, 31, 16, -14, 5, 14, 5, 55, -44, 18, 38, -14, 17, 4, -7, 17, -47, 27, 41, -14, 11, 15, -4, -31, -24, 12, 43, -38, 13, -47, -20, 56, -17, 31, -22, 5, 9, -51, 15, -33, -3, -28, 3, -41, 52, -26, 29, 50, 11, -11, -33, 36, 28, -27, -29, 31, -20, 34, 17, -24, 56, -22, -18, 37, -36, -28, 27, 3, -22, -39, -19, 0, -45, 55, -8, -60, 38, -45, -15, 1, 23, -32, -17, -22, 17, -54, -48, -6, 28, -8, 20, -63, 0, 2, -12, 43, -40, -18, 44, 13, 35, -26, -2, 15, -34, -28, 9, -50, 40, 21, 17, -8, 18, 25, -13, -46, 51, -42, 15, -22, -44, -6, 56, -9, 46, 2, -31, -26, 6, 57, 21, -28, 53, -23, -55, -26, -45, -6, 49, 27, -13, -5, 42, -28, -54, 45, 3, 35, -33, 28, -19, 3, 19, -29, 7, -20, -46, 32, 36, -39, -12, 43, 20, 0, -23, 36, 25, 16, -28, 7, 14, -41, 49, 18, -41, 24, -20, 26, 40, 30, 43, -9, -8, 32, 40, 27, -44, 5, 12, 8, -46, -20, -40, -13, 34, 44, 1, 24, 27, -6, -46, -37, 34, -53, 28, 7, -8, -50, 10, 24, -31, 27, 19, -13, -14, 34, -7, -42, -18, -54, -17, -33, 42, -10, -52, -31, 13, -40, 44, 2, -9, -48, -25, 19, 28, 5, -41, -42, 0, -32, -17, -25, -25, -5, -20, 8, -17, -24, -17, -5, 46, -22, 26, 11, 6, -6, 25, -29, -28, -3, 8, 34, 11, -20, 18, 13, -33, 25, 14, 16, 5, 7, -16, 19, 8, 33, -22, 21, -39, 34, -29, -10, -9, -16, -8, -44, -57, 11, 9, 2, 28, -78, 38, -25, -10, 29, -47, -3, 11, -33, 22, -57, 42, 25, 23, 16, -28, -32, 17, -44, -20, 6, -20, 27, 46, -59, -38, -24, -67, 15, -46, 62, 35, 4, 45, 23, 2, 46, 30, 8, 36, -50, 6, 39, -47, 3, 23, 58, 52, -10, -20, -38, -44, 17, -52, -17, -33, -14, -5, -36, -29, -20, -64, 20, 3, -28, 13, -6, 2, -9, 12, 36, 24, -44, -4, -24, -12, 32, -16, -23, 24, -32, -3, -53, -52, 16, 3, 6, -1, 15, -27, -22, -46, -1, 17, 62, -15, -11, -25, 43, -61, 34, -14, 1, -16, 19, -24, -31, -47, 11, -16, 67, 33, -41, -15, -1, -63, 64, -19, 3, -6, 9, 26, -25, -35, 35, -19, -7, 0, 31, 0, 11, 4, 67, 9, 36, -11, -59, 9, -16, -40, 26, 15, 0, 65, -38, 8, 7, -22, 9, -21, -3, 72, -9, 22, -45, -31, 53, -30, -39, 45, -16, 100, -55, -2, -20, -59, 53, 25, 24, 5, 6, 26, 24, -2, -36, 82, -47, 61, -23, 20, -6, -58, 27, 44, -28, 7, -18, 8, 48, -6, 26, -12, 14, 74, -1, -15, -11, -24, 18, 37, 7, -5, -51, -15, 23, 21, 9, 52, 24, 19, -24, 31, 6, 20, 5, -3, -46, 72, -22, -22, 38, -33, 3, 34, -28, 68, -21, -53, -40, -24, -44, 77, -42, 78, -14, 27, -20, 30, 20, 10, 32, 7, 5, 9, -43, 15, -56, 37, -30, 90, -49, 22, 5, 6, -31, 66, 24, 5, 20, 7, -28, -64, 15, 43, -44, 79, -4, 7, -3, -30, -42, 29, 1, 32, -34, -16, -30, -16, -35, -4, -8, 51, -45, -12, -53, -21, -32, -38, 11, -27, 44, -51, 24, 10, 14, 41, 25, -15, 43, 35, -1, 28, -30, -26, -15, -30, -20, -36, -6, -15, 10, 6, -5, 31, 0, 18, -14, 10, 3, -7, 24, 33, -20, -24, -51, -30, -14, 18, -29, 35, 18, 20, 39, 4, 0, 14, 47, 40, 13, 22, -27, -60, -34, -23, -1, 13, 18, -50, 38, -22, -61, -19, 57, -37, -21, 25, -51, -32, -54, 18, 39, 13, -24, 9, 30, -20, 24, -14, 48, 0, 29, -14, 37, -53, -1, 53, 39, -34, -35, 23, 26, -40, -25, 1, -17, -16, -21, 4, 22, -55, -22, 32, -35, -25, 33, -28, 21, 40, -21, 2, 50, -29, -13, -54, 15, -8, 17, -37, -17, 5, 41, 39, -32, -44, -16, -24, -33, -29, 20, 21, -30, -1, -43, 29, -36, -24, -8, -11, -32, -65, 27, -34, 38, -33, 29, 25, 41, -52, 34, 31, 12, 15, 7, 2, -2, -1, 41, 28, 6, -23, -17, -48, 10, -38, 29, 25, -5, -4, -22, 9, 29, 36, 23, -6, -43, 22, 7, -47, 32, 4, -35, -27, -46, -21, 57, 17, -5, -10, 22, -12, -30, 45, -23, 7, -11, -4, 31, 2, -39, 23, -44, 9, -38, -48, 1, -31, -24, -3, 13, -39, -4, 20, 29, -19, 27, 55, -10, 10, 0, -19, -20, -13, 54, -1, -35, 24, 9, -55, 6, -9, -51, -39, -57, -27, 3, -3, 42, -32, -20, 8, 31, -53, 30, -51, -37, -21, -33, 19, -31, -18, 28, -9, 49, 23, 27, 37, 57, -41, 0, -25, -30, -5, 9, 41, -14, 5, 8, 15, -18, -13, 26, 4, 22, 1, 22, -31, 47, -12, -45, 6, -30, -11, 38, 34, 39, 36, -6, 47, -35, -3, -28, 21, 42, 52, 16, -21, 52, -9, -25, -5, 28, 53, 24, 2, 49, 5, 14, -29, 44, 22, 42, -20, -35, -3, 56, 41, -8, 4, 5, 33, 46, -9, -30, -34, -11, -7, -2, 40, 52, -18, 26, -17, -30, 59, 24, 39, 50, -6, 55, 34, 6, -14, 46, 35, 27, -50, -25, -30, -11, 21, -19, 16, -37, -12, -31, -28, 35, -39, 0, 26, 32, 23, 53, 20, 48, 41, 42, 48, 44, 36, 1, -2, 20, 19, -33, -14, 39, 40, 32, 2, -11, -50, 56, 31, -13, -29, -21, 18, -8, -34, 33, 49, 32, -4, -15, -21, -16, -17, 46, 45, 36, -24, -16, -44, 26, -25, -4, 11, 17, 30, 20, 11, -22, -1, 33, 37, 34, -23, 37, -10, -5, -18, 8, -8, 29, 24, 2, 41, 50, 22, 2, 28, -17, -40, -5, -20, 11, 36, -43, 22, 2, -29, 8, 54, 37, 13, 27, -23, 25, 24, 50, -28, -28, -23, 30, -49, 47, -30, -2, 13, -26, -6, 47, -9, -43, 28, 9, 6, 2, -35, -10, 1, 55, -23, 9, 2, 35, -28, 46, 11, -15, 15, 17, -5, -32, -22, -10, -18, 40, -3, 8, -36, -16, 29, -25, -36, 44, -33, -27, 48, 23, -1, -46, 31, -29, 22, -17, -21, -24, -19, 40, 9, -39, 25, 8, -16, 47, 24, 4, 11, -43, -39, 38, -34, 20, 7, 39, 32, -28, 22, 39, 9, 29, -16, -27, 16, 33, -6, -13, -1, -15, 42, 46, 13, 28, 44, 0, 17, -32, 18, -29, -3, -1, -1, -44, -25, 47, -40, -24, 21, 4, 0, -10, 33, 9, -51, -28, 14, -48, -30, 15, -36, 6, -18, -7, 14, 5, -39, -10, 8, 0, 41, -6, 2, -56, -26, 28, -25, -13, -27, 30, 34, 7, -15, 4, -1, 13, 3, 36, -25, 26, -18, -7, 39, 11, 22, 16, 13, -20, -2, 21, 7, -2, 13, 18, -9, -2, -18, 35, 52, -16, 9, -50, -38, -25, 50, -15, -12, -25, -33, -21, -6, 0, -36, -1, 16, 24, 49, 9, -12, -27, 37, -35, -7, -1, 40, -4, 14, -2, -19, 8, 4, 47, 17, 18, 24, 10, 50, -12, 10, 30, -22, -37, -6, -21, 21, -38, 41, -10, 35, 17, -6, -27, 13, -22, -5, 28, 56, 30, -8, -40, 24, -42, -6, 33, 51, -29, -28, -49, -28, -31, 3, 17, 9, 14, 32, -19, -33, 22, -11, -14, 19, -42, 33, -52, 44, -32, 28, 16, -33, -36, 37, -64, 44, 8, 5, -61, -23, 50, -29, 41, 2, -44, 24, 31, -43, 5, 24, 15, -28, -30, 56, -43, -30, 13, -15, -2, -39, -53, -27, -10, -40, -13, -40, 18, -33, 22, -2, 27, -34, 4, 39, -10, -24, -27, 17, -31, 22, -5, -25, -23, 27, -33, -40, -4, 7, 21, -30, 37, -15, -37, -40, 1, 37, 37, 27, 46, -9, 7, 22, -27, -5, 9, 10, 29, -26, -58, -36, -15, -24, 35, 12, -10, 22, 2, 6, 24, 43, -25, 22, -42, 9, -25, 36, -29, 29, -15, -23, 5, 32, -23, 56, 15, 14, -18, 8, 13, 3, 21, -12, -15, -18, -12, -34, 7, 34, -43, 47, -21, -54, 34, -23, -39, 37, 5, -11, -54, -41, -3, 28, -38, -2, 14, -15, 6, -13, 29, 36, 6, 15, 31, 52, -21, -51, 21, -25, 42, 2, -27, 71, 55, 13, -36, -2, -36, 48, 59, 16, 12, 40, 40, -40, 36, -18, 57, 29, -21, -23, -40, 34, 49, 27, 44, 69, 12, 39, -16, 0, -14, 42, -15, 9, 12, 19, -11, -4, 30, 67, -8, 19, -10, 45, -34, -20, -28, 14, -13, 11, -29, -5, -12, 4, -24, 4, 20, 42, -12, 13, -32, -17, -18, 31, 26, 14, 70, 18, 38, -3, -44, -8, 31, 57, 20, 26, -48, 47, -16, 14, -2, -16, 66, -18, -35, -38, -2, 33, 21, 18, 0, -37, -12, -41, 5, 18, 48, 64, -9, 30, -28, 2, -41, 44, 68, 0, 73, 41, -32, 40, 27, 63, -19, 36, 53, -18, 27, -33, -18, -12, 47, 22, 47, -39, 16, 25, 33, 63, 37, 7, 18, -26, -37, 3, -31, 4, 65, -26, 72, -12, 47, 43, -13, 6, -9, 13, -6, 45, 40, 46, -44, -21, -21, -9, 20, 64, -3, 73, 28, 38, 32, -45, -12, 78, -4, 48, 37, -30, 22, 0, -39, 55, 39, 87, 22, -57, 1, -33, 38, 14, -6, 41, -38, 33, -24, -56, -4, 4, 13, 79, -9, 10, 29, -56, -17, 67, -35, 57, 16, -35, -3, -14, 34, 41, -30, 27, -26, 41, 36, -36, 35, 71, 21, 74, -52, -51, -43, -37, 38, 67, -5, 66, 36, -10, 54, 11, -45, 76, -5, 81, 17, -7, 26, 36, -10, 39, 20, 81, 5, 13, -1, -26, 28, 33, -19, 55, 3, -40, 2, -48, 17, 64, -13, 36, 36, -33, 31, -27, 17, 83, -46, 19, -2, -43, 29, -55, -1, 22, -15, 68, 9, -46, -20, -4, 35, 8, -25, 29, 13, -41, 25, -60, -44, 58, -46, 78, -49, 11, 5, -2, -4, 21, 51, -45, 65, 29, 42, 34, -1, 9, -5, -11, -19, 51, -26, -46, 34, 49, 19, -34, 62, 12, -20, -35, 55, 25, -13, -10, 59, -33, -5, 8, -34, 17, -19, 14, 57, 24, -1, 14, 28, -9, -8, 13, -8, -28, 56, -25, 48, 70, 14, 37, 57, -26, -10, -41, 26, 64, -21, -49, 2, -30, -16, 9, -24, -37, -15, 30, -11, -1, 13, -9, 26, 36, -17, 18, 54, -41, 18, 3, -25, 31, 15, -6, -2, 9, 40, -28, -1, 28, 45, 3, 31, 34, 50, 8, -20, -32, 65, -13, -18, -2, 28, -35, -23, -36, -25, -4, 39, -28, 37, -16, -22, 6, -30, 0, 34, -13, 29, -13, -5, 10, 65, -57, -16, -33, 49, 40, 10, 39, 20, -20, 46, 14, 50, 36, 19, -37, -20, 42, -24, 16, 18, 1, -29, -40, 24, 47, -10, -25, -13, 10, -58, 29, -7, -10, 13, 9, -25, 8, -10, -5, 10, -35, 50, 32, 5, 30, -23, 38, 24, -15, 74, -5, 15, 19, -17, -24, 2, -36, 12, -2, 1, 16, 35, -17, -14, 27, 9, -45, -45, -13, -1, 44, 9, -42, 57, -5, 17, 19, -20, 18, 52, 29, 32, 4, -40, -56, -69, 31, 18, -28, 60, -4, 14, 19, -16, 29, 6, -7, 68, 12, -18, -28, -56, 3, -25, -38, -10, -31, 11, -20, -74, -41, 12, -33, 32, 10, -8, 25, 11, 33, 67, 9, 44, -13, -80, -6, 6, -30, 49, 36, 18, 31, -28, -29, -2, 13, 68, 47, 18, -48, -65, 23, -23, 28, -3, 15, 63, 19, 4, 37, -47, -31, 14, -2, 57, -31, -41, 31, -40, 20, -20, -16, 5, -25, 52, 6, 12, -12, 46, 7, 26, 44, 62, 0, -29, 12, 42, -47, 16, 34, 77, -34, -21, -18, 1, -39, 50, -21, 49, 52, -14, -26, -2, -31, 9, 21, 3, 39, 46, -35, -22, -38, -35, 45, 20, -5, 28, -29, -5, 36, 14, 10, 12, 40, -28, 19, -37, 25, -40, -49, 66, 8, 29, 51, -45, 34, -14, 52, 39, 21, 10, 42, -1, 11, 11, -24, 11, -40, 62, -46, 31, 14, 41, 49, 49, -22, 34, -32, 6, 38, -24, 49, 40, 7, -32, 47, 38, 35, -4, -19, 17, -32, 49, -12, -23, -42, -30, -4, 4, 18, 7, -45, 6, -34, -39, -24, -23, 32, 42, 12, 52, 28, -17, -20, -26, -20, -17, -1, 2, -29, -22, 3, -7, -44, 43, 13, -7, -28, 23, 18, 8, 29, -13, -15, 18, 10, 7, -15, -14, 45, -35, -2, -1, -45, -1, 47, -32, -36, 31, 6, -48, -11, 36, -21, -23, 32, -6, 14, -47, -7, 19, 41, 46, 48, -36, -22, 13, 49, 35, 41, -41, 28, -8, -3, 27, 25, 2, -39, -8, 48, 46, 1, -18, 20, 46, -7, 35, -46, 17, -39, 17, -23, 26, -19, -33, -30, -11, 61, -26, 51, 40, -37, -40, 29, 9, -44, 37, 2, -50, 35, -10, 0, -46, 39, -48, -31, -34, 11, 18, 22, 30, -38, 33, -36, 39, 50, -33, 17, -23, 11, 8, 29, 1, 41, 0, 10, 23, 2, -43, -39, 30, -26, 12, -35, -4, 11, -21, -22, 10, 35, -16, 32, -11, 44, -43, -30, 47, -14, -27, -8, 9, -31, -42, 24, -37, -1, -30, 17, -46, 18, -36, 32, -12, -19, 10, 15, -1, 2, 31, 35, -49, -52, -8, 35, 9, -40, 25, -22, 37, 1, 12, 41, -33, -16, -6, 23, 25, 44, -12, -21, -3, -13, -20, -4, 51, 40, 37, 18, -55, 6, -31, -45, -19, -30, -20, 5, -12, -39, 0, -22, 44, -24, 13, 34, -36, -17, -14, -35, -21, 3, -54, -39, -48, -12, -19, 48, 37, 25, -28, -39, 26, -12, 16, 41, 2, -3, -14, 35, -30, -13, 2, -16, 29, -40, 17, 32, 36, -18, 8, -4, -36, 5, -15, -42, -39, -14, -46, 22, -26, 34, 7, -47, 16, -23, -8, -12, 41, 31, -31, 8, 27, -8, 16, 3, 22, -59, 42, -42, -35, 2, -6, -4, -26, 14, 0, 17, -25, 21, 36, 43, -4, -57, 2, 1, -45, -14, -22, 13, 40, 2, 19, 6, -30, -51, -3, -42, -32, -43, 27, -52, -22, -13, 22, -16, 5, 13, 44, -39, -12, -5, -30, 33, -2, 33, 4, 40, 45, 4, -32, -22, -53, -38, 5, 25, -24, 26, 15, -23, 10, -38, -26, 44, -35, -5, 36, 18, 22, -21, 45, 13, -46, -10, 13, 16, 6, 22, -32, 3, 24, -17, -8, 17, -4, 50, -2, 41, 48, -6, -5, 14, -7, 45, -11, -41, 19, 37, 47, -18, -54, -19, -37, -50, 19, -6, -20, -18, -28, 10, -7, 38, -20, 23, -53, 27, -17, 48, 25, 23, 30, -2, -35, 44, -32, 18, 50, 9, 11, -34, -2, -32, -27, -34, 43, 15, -45, 5, -58, 29, -39, -2, 44, -26, 21, 12, -35, 16, 26, -14, -20, -8, -35, -12, -35, -40, 27, -38, -11, 33, -30, -11, -56, 40, -13, 54, -2, -8, 22, -33, -18, 42, -44, 52, -32, 22, -46, 33, -50, 46, -51, 7, -16, -3, 43, 0, 18, 9, -45, 29, -7, 15, -22, 3, 11, -24, -22, 38, 25, -39, 26, -44, 35, 50, -23, 30, -8, -15, 37, -36, 7, -46, -27, 7, 20, 35, -5, 13, 19, 25, -19, -1, -6, 1, 14, -34, 13, -11, 58, -23, 6, -28, 12, -2, 35, 9, -21, -7, -20, 37, 24, 12, 43, 16, -34, -36, -34, -8, -23, 21, -19, 41, 20, -3, 13, 40, 32, 42, 33, 7, -4, -42, 7, -16, 14, 27, 48, 10, -2, -19, 14, 33, -32, -3, -40, -5, 25, -2, -18, 7, 29, 33, -27, -36, 27, -7, 17, -23, -25, -48, 21, -20, 21, 29, -22, -18, -18, -32, 13, 20, -25, 4, -9, -27, 45, 51, 11, 23, -13, 44, 5, 29, -45, 13, -51, -33, -34, 3, 18, 4, -38, 2, 29, -30, -30, 17, 10, 4, -27, -4, 49, 7, 49, -45, 14, 26, -45, 23, -16, 14, 45, -30, -51, -26, 43, -8, -33, 31, -13, 18, -4, 1, -18, 31, 48, -23, 8, 40, 1, 14, -22, -53, 43, -19, 31, -36, 44, 27, -31, -38, 5, 21, -26, 29, 18, -23, -32, 48, -12, 24, -40, -48, -5, -21, 36, -20, 9, -57, 1, 1, -32, -24, 26, 28, -8, -3, 40, 45, -30, 17, -38, -6, -30, -29, 29, -23, 6, -18, -4, 4, -9, -57, 38, -8, -26, 34, 40, -8, 5, 8, 18, -1, 29, -3, 27, -56, 55, 5, -31, 47, 46, 13, 19, -61, -9, -56, 44, 41, -15, 37, -13, -37, -33, 19, -32, 10, -14, 29, 23, -30, 43, -22, 56, 46, 20, 8, -2, -35, -10, -73, 20, 11, 37, -2, -41, 1, -29, 27, -24, -9, 34, 51, -14, 24, 24, 33, 0, -21, -42, 29, 8, -4, 54, 27, -38, -35, -34, 55, 39, -10, 10, -10, 22, 42, 4, -43, 12, 8, 49, 55, 15, 36, 6, 19, 45, 35, -1, 31, -42, 42, -23, -25, 22, -38, 49, -11, -49, 40, 12, 41, 14, 35, 10, 28, 49, -25, -15, 54, 6, 4, 14, -45, -33, 47, -33, 30, -18, -34, 31, -50, -26, 57, 2, 31, -10, 25, 50, 42, -30, -49, 43, -26, -15, 6, -16, -42, 5, 5, -45, 31, 6, -21, 20, -47, 27, 25, -47, 12, -47, 15, 44, -13, 41, 1, -28, -19, -21, -63, 14, -26, 41, 40, -47, 16, 11, -39, -30, -5, -47, 38, -19, 27, -18, -35, -14, 15, 1, 36, -50, 57, 39, 14, 16, -35, 13, 50, -34, 1, 24, -61, -19, 13, -13, 7, -16, 44, -25, 17, 24, 2, -44, -13, 57, -36, 1, -10, -47, -9, 15, 44, -32, 7, -23, 41, -31, 44, 10, 0, 22, 50, 52, -33, 27, 28, 32, 18, 43, -23, 4, -22, 26, -26, 29, -30, 30, -11, 1, -41, 23, -53, -42, 17, 14, -37, 28, 27, -43, -15, 34, 47, 60, -22, 31, -7, 19, -27, -35, -18, -25, -2, -11, 49, -32, -27, -19, 4, 51, 43, 0, 22, 14, -44, -23, 39, 50, -2, -6, 26, -30, -3, 48, 33, 34, 39, -3, -48, -33, 40, 49, -35, -34, -41, -1, 48, 34, 2, 45, 28, 13, -20, -24, 52, 15, 9, -32, 17, 53, -6, 57, -40, 39, -43, -41, -29, -2, 28, -15, -41, 37, -26, 24, -10, -43, 35, -26, 17, -30, 13, -44, -41, -23, -1, -37, 8, -44, -19, -47, 27, -39, 33, 44, -41, 17, 31, 14, 29, 30, -8, -43, 11, 36, 17, 37, -34, 10, 34, 6, 44, 16, -12, 48, -42, -36, -28, 33, -10, 29, -37, 36, 43, -46, -4, 23, 52, 49, -15, -31, -53, 14, -35, -40, 27, 8, 19, -13, -15, 26, -16, -25, 40, -11, 8, 18, -25, -12, 4, 46, 38, 27, 18, 45, -1, -3, -13, -11, 25, 47, 7, 29, 30, 2, -33, -15, -25, 20, 24, 5, -13, -16, -50, -5, -14, -21, 33, 31, -1, -19, -55, 29, -36, -21, -42, 56, -21, 48, -47, 33, 18, 20, -15, 3, -39, 58, 31, 46, -15, 66, 48, 20, -54, 29, -5, 36, -2, 56, 14, -8, 14, 4, -55, 36, -24, -21, -32, 62, 2, 49, -41, 55, -9, 40, -7, 40, 33, -19, -19, 32, -50, -14, -13, 58, -15, 9, -37, -34, -2, 8, 52, -15, 2, -20, 34, 34, 48, 3, -25, -40, 52, -41, 0, -14, -37, -9, 35, 37, -21, 24, -8, -1, -17, -10, 19, 37, 13, -13, -13, 26, -12, 25, -29, -16, 51, 11, -32, -33, 46, -15, 3, 50, -12, 44, -18, 52, -13, 39, -29, 5, 59, 0, 58, 8, 17, 21, 25, -42, -28, -23, -2, 15, 54, -15, 33, -27, 52, 8, 3, 52, -30, 5, -19, 24, -29, 25, -15, 15, -1, 10, -25, 18, -27, 12, 31, -12, -16, -31, -4, 26, 8, 6, -22, -36, -3, 2, 37, -21, -25, 26, -12, -36, 34, -29, -25, 39, 3, 43, 54, 2, -20, -7, -1, -19, 52, 44, -26, -4, 16, -59, -5, 10, 43, -4, 49, 19, 5, -32, -39, 8, 23, -23, 15, 3, -31, 17, 11, -13, 30, 10, 1, 22, 16, -62, -11, 18, -22, -20, 3, -19, -31, -59, 13, -51, -4, -1, 33, 43, 55, 21, 38, -56, -45, 19, 27, 14, 10, 21, 17, 29, -30, 47, -50, -10, -12, -19, -11, 9, 11, 29, -37, -8, 2, 4, -19, 33, 29, -31, 29, -15, 30, -22, 46, 16, 14, -32, 6, -8, 41, -52, 52, -25, 22, 31, -5, 31, 34, 34, 15, -4, -50, 19, 30, -19, 16, -24, 38, 13, 21, 37, 24, 27, 34, -45, 34, 22, 23, -31, -27, -2, 30, 20, -23, -42, 27, -40, 33, -35, -23, -45, -1, -6, -8, -36, 14, -13, 43, -54, 24, -30, 37, 31, 41, 46, 35, -39, 54, -46, -9, -44, -47, 48, 16, -11, 22, 28, -7, 39, 7, -7, 2, -20, -7, -8, -48, 25, -38, 24, -33, -13, 43, -34, 48, 5, 24, -32, -26, 0, 5, -32, -8, -16, 11, 18, 36, -36, 13, -24, -30, -45, -14, 1, 31, 8, -25, -28, -49, -49, -22, 4, -43, 4, -52, 35, -22, 35, 48, 13, 19, -29, 19, 21, 49, 0, -29, -42, -3, -29, -36, -30, -21, -12, 13, 30, 33, 37, 35, -19, 42, 35, -13, -53, -20, 3, 37, -31, 19, 6, 26, -49, -43, -38, -53, 27, 42, -40, -26, -11, -31, 36, 46, -22, -28, 29, 17, -42, 37, 0, 12, -37, -31, 1, 24, -69, 32, 17, 8, 32, 14, -8, -9, -11, 30, 30, 17, 9, 10, -54, 25, 21, 37, 39, -35, 45, -29, -30, -11, -15, -35, 4, 8, 39, -23, 11, -33, -11, 10, -46, 41, -6, -5, -12, -16, 36, -4, 7, -12, 38, -23, -29, 27, -52, -53, 4, -17, 16, 3, -36, 31, 17, -31, -35, 6, -37, -36, -7, -7, 64, 19, -33, 4, -26, 22, 50, 32, -27, -36, -15, -10, -5, -19, 37, 38, 10, 47, 33, 28, -42, -38, 6, 9, 7, 37, -15, 52, -7, 40, -14, -11, -22, -21, -32, -35, -1, 36, 34, 49, 1, -23, 23, -24, -34, -24, 39, 50, 52, 5, -14, -16, 6, 2, -30, 46, 28, -27, -16, 5, 25, 17, -18, -4, 57, 7, 26, 43, 35, 69, 12, -40, 36, -18, 52, 15, -22, -15, 63, -27, 43, -36, -40, 51, 38, -3, -14, 2, 30, 47, -28, 14, 41, -16, 38, -20, 6, 6, -15, -9, 33, 52, -28, 6, 31, 31, -13, 23, 30, -10, 29, 4, 29, -3, -9, -30, 25, 7, 4, -27, 11, 28, -49, 13, 0, 49, 12, 45, 34, -26, -16, -12, 9, 23, 14, 8, -45, -10, -32, 22, -50, 4, 19, 28, 44, 45, -24, 65, -38, 12, 16, 35, -26, 56, 24, -14, -14, 12, -16, -2, 57, 39, -46, 14, 24, 33, 44, 37, -48, 54, -40, 73, 14, 20, -4, 14, -30, 23, 3, 63, 15, -33, -36, 27, 30, 71, 27, 17, 8, -14, 52, -5, 41, 73, -25, 73, 20, -34, -36, 24, -53, 61, -44, 63, 28, -9, -33, -53, -24, 12, -5, 76, 27, -43, 16, 20, -27, 72, -24, -5, -20, -39, 12, 19, 5, 71, 1, 10, -26, -33, -10, 10, -28, 15, -21, -11, -43, 33, -7, -57, 22, 68, 1, 60, -5, -8, -9, 41, -6, 0, 39, 18, -6, -23, 16, -39, 10, 50, -28, 39, 19, 16, -52, -52, -43, 62, 19, -16, 4, -43, -58, 2, 21, 56, -22, 15, -53, -47, -5, -2, 11, -38, -8, 5, 61, -15, 9, -26, 43, -30, 3, 37, 56, 28, 41, 13, 2, 11, -10, 31, 31, 9, -41, -38, 3, 21, 48, 39, -20, 12, -44, 32, 50, 43, -31, -20, 50, 11, -8, -19, 43, 38, -6, 60, 0, -43, 54, 38, 1, -22, 37, -13, 11, -34, 1, -34, 10, -27, 21, -20, 42, -26, -45, -2, -45, -39, 1, -38, -29, -19, -41, 41, -23, 20, 7, 21, 39, -23, -9, 23, -27, 15, -8, -49, -29, -22, 31, -11, -33, 37, 1, -2, 26, -30, 4, -36, 18, 37, 17, -31, 39, -39, 0, 1, -4, 35, 6, 20, 43, -16, -37, 13, -5, -16, 52, 33, 25, -11, -33, -13, 13, 16, -29, -23, 16, 19, -23, -1, -27, -49, -22, -34, -29, -1, 11, -37, 24, -26, 49, -32, -37, 11, 27, -49, -5, 57, -13, 36, 19, 13, -17, -25, 9, -14, 0, 10, 25, -16, -32, 38, 26, -8, 59, 26, 17, 32, 33, 4, -43, 49, -12, 13, -36, -32, 17, -4, 1, -17, -28, 10, -8, -50, -23, -4, 5, 36, 27, -33, 39, 38, -13, 34, -24, 14, 27, -21, -32, 25, -34, 13, 17, -6, -32, -18, 0, -48, 10, -64, -54, -50, 48, 37, -36, -34, 36, 27, -17, 4, -33, -24, 43, -29, -4, -3, 30, -5, 22, -27, 26, -20, 30, -41, -14, -11, 7, -2, 43, 11, -20, -3, 2, -6, -27, -2, -25, -13, -25, 23, -9, 14, 31, 4, 22, -5, 9, -47, 26, 14, 35, 2, 23, -40, 16, 19, -9, 28, 25, 23, 24, -59, 26, 9, 31, 13, -26, 21, -10, 13, -5, 19, -1, -12, 9, -11, 19, 40, 16, 27, -3, 22, 7, -41, 20, 10, -15, -11, 32, -17, -23, -18, 50, 40, 3, 11, 18, 22, 56, -11, 55, 40, 61, -34, -29, 28, -13, 19, 29, -20, 33, 14, 43, 39, 25, 38, 29, -29, -21, -21, 14, -16, 29, 18, 39, 48, 60, -6, -17, 15, -25, -28, -21, 42, 30, 19, -24, 2, -28, -3, -21, 5, 28, 41, 19, -37, -20, -18, 32, -45, 10, -29, 35, 24, 49, -31, 29, 5, 66, 39, 48, -8, 10, -7, 49, -6, -17, -36, -13, 20, 13, 38, -22, -21, 26, -19, 17, -18, 15, 36, 47, 54, -31, -28, 22, -41, 53, -16, 46, 52, -3, -36, 24, -33, 13, 3, -18, 52, 48, -23, 2, -31, -34, 38, 58, -40, 28, -28, -11, 25, 53, -52, 21, 42, 30, -14, -29, 25, -7, -11, 42}

#define TENSOR_LSTM_LSTM_CELL_KERNEL_0_DEC_BITS {8}

#define TENSOR_LSTM_LSTM_CELL_RECURRENT_KERNEL_0 {12, -68, 34, 75, 28, -15, -14, 19, -35, 30, -30, 14, 24, 11, -80, 44, -19, 2, -34, -1, -55, 19, -21, 40, -17, 5, 72, 8, 8, 52, 7, 24, 14, 16, -7, -4, 45, -37, 65, 28, 18, -2, -36, -17, 38, -34, -28, 28, -41, 55, -5, -3, 20, -47, -20, 75, 18, -10, -34, -42, 47, -36, -53, 2, -9, 15, 3, 26, 39, -55, 30, -47, 15, 12, -19, 42, -11, 32, 73, -46, -18, -25, 1, -32, 24, -77, -13, 25, 52, -35, -8, -17, -46, 42, -3, -20, -19, -4, -19, -25, -26, 20, 30, 24, -17, -3, -34, -25, 24, -49, 40, -16, 27, -6, 28, 7, 26, 37, 50, -76, -10, 14, 16, 2, 18, 39, 11, -22, 18, 4, -14, -25, -7, -41, -9, 32, 8, -15, 47, 8, 60, 0, -11, 45, 10, -48, -18, 33, 3, 51, -9, 44, 19, 33, 39, 0, -15, 24, -1, 36, 10, -42, 1, -18, 49, -50, 21, 30, 5, 14, 12, -6, -4, 5, -39, 13, -17, -5, 70, -29, 34, -5, -23, -11, 11, -17, -26, 2, 16, -28, -1, -32, 2, -4, -40, 9, 5, 28, 27, -7, 14, 33, 15, 6, -64, 57, -51, 5, -23, 13, 37, -19, -9, -14, -6, -50, 9, 16, 0, -45, -22, -3, -5, -10, 27, -1, 12, -46, 22, 5, -1, -6, -11, 3, 23, -11, -24, -60, 7, 8, -10, -18, -37, 26, -22, 29, 27, -33, -23, -8, -44, -11, -19, -7, 32, -27, -33, -24, -48, -18, -38, -16, 21, 19, 24, -9, 27, 9, 31, 15, -7, -4, 44, -14, 13, -12, -37, -2, 23, 28, -1, -21, -44, 10, -1, 1, 60, 12, -40, 4, 5, 15, 55, 23, -44, -30, 1, -2, -48, 13, -28, -43, 18, -24, 9, 25, -16, -10, 43, -1, -1, 11, 41, -2, 24, -18, 11, 21, -3, -39, 26, -2, -15, -4, 37, -21, 13, -5, -41, 38, 18, 33, 1, -4, 2, -13, 16, -2, -29, 22, 16, 22, 24, 12, 13, -20, -14, -20, -9, 0, 24, -3, -20, 25, 2, -4, 18, -19, -3, 3, 3, 11, 18, -21, -21, -19, -1, 43, -24, -2, 7, -11, 12, -24, -41, -25, 17, -6, 17, 21, 26, -5, 7, -27, -40, 27, 32, 20, 52, 5, 7, 4, 30, -2, 67, 25, 9, -35, 28, 48, 0, -8, 19, 13, -53, 66, 14, 35, 43, 14, 22, -27, 18, 60, -13, -3, 21, 4, -33, 3, 38, -12, -4, 16, -43, -10, 5, 6, -24, -13, -18, 6, -48, -39, 29, -30, 2, -8, 15, 11, -48, 7, -38, 85, -50, -47, -8, -9, -7, 8, -53, -22, 2, -21, 20, -62, 4, -35, -29, -8, -53, 0, 22, -7, 37, 33, 40, -25, -1, -19, -39, 17, 24, -4, -79, -35, -3, 53, 12, -58, -2, 2, -44, -34, -4, 25, -47, 20, -30, 12, -15, -16, -38, -44, 15, -19, 10, 1, -29, 81, -15, 65, 5, -86, -30, 4, -3, 32, -19, -29, 32, -52, 17, -31, 31, -20, 33, -29, -4, -10, -26, 7, 33, -2, 9, -18, -1, -16, -41, 44, -2, -9, 13, -35, -31, 21, 4, 9, 42, 7, -12, 28, 1, 5, -18, 29, -9, -20, 13, -6, -2, 20, 3, 24, -6, -33, 4, -16, -16, 0, -24, 24, 51, 44, -45, 33, 25, 15, 17, 33, 10, 0, -17, -30, -28, -39, -29, -10, 22, 37, 33, -49, 3, -12, 28, 56, -15, -21, 10, -13, 6, -26, 11, 10, -15, 6, 47, 26, 15, -29, 41, 8, 3, 21, 1, 23, 5, 3, 27, 27, -15, 8, -38, 12, -2, 14, -13, -28, -24, -22, -19, 18, -6, -17, 20, -7, -35, -11, -12, -36, -2, -11, 2, -30, -9, -6, -26, -13, -12, 2, -7, -1, -24, -43, -17, 12, 42, 14, 25, 64, -29, 14, 40, 20, 23, -60, 38, 5, -12, 12, 26, -9, 5, 14, 35, -9, 22, 4, 25, -14, 18, 52, 16, 0, -5, 28, -24, 50, 7, 11, -34, -25, -5, 18, -27, 28, 0, -47, 20, 7, 45, -43, -4, 28, 11, -7, 7, -31, -60, 10, -3, 51, -42, -12, 6, -4, -1, -2, 27, 47, -49, -9, 47, 10, -43, -17, 3, 42, -37, 12, -18, -24, -2, -15, 25, 7, 35, -23, -27, 33, -37, 18, 39, -37, 23, 40, -6, -38, -44, -9, 35, 30, 14, 10, 16, 0, -26, 51, -69, 9, -41, 25, 0, -38, -1, -27, 21, -22, -26, -11, -17, -19, 27, 21, -31, 23, -7, 14, -19, 29, 40, -24, -32, 14, 5, 38, 10, -25, 25, -45, -56, 28, 70, 63, 2, -48, -5, -22, 7, 41, 11, 6, 21, -19, 21, 31, -14, -1, -52, -20, 5, 11, -28, 12, 19, 6, -4, 12, -31, -5, 11, -2, -57, -29, -17, -21, -8, 52, -11, 31, -44, 10, 19, 8, 1, 4, 48, -31, -18, -26, -5, 32, -25, 46, -7, -46, 5, 9, -14, -45, 41, 12, -11, 25, 55, 44, -6, 3, 6, 14, 51, 32, 15, -10, 16, 8, -6, -50, -24, 4, 17, -7, -29, -32, -6, -1, -19, -18, 12, 38, -34, -7, -25, 2, 13, 22, -18, 24, -20, -10, 63, -29, 11, -9, 27, -4, -46, -17, 11, 26, -32, 33, -26, 45, -57, -17, -12, -6, -26, -10, 11, -30, 7, -33, 39, 6, -38, 9, -35, 19, 33, -26, -31, -9, -33, -60, 6, 16, 5, -26, -28, -23, 35, 20, -8, -4, 23, 25, 9, 12, 5, -7, 56, 11, 13, -6, 23, -29, -47, 9, -35, 16, 25, 10, 13, -12, -36, 22, -41, 45, -10, -57, -7, -42, -37, -34, -11, -7, 43, -29, -4, 54, -1, -32, 29, -14, 13, 14, 24, 37, 9, 8, -43, -67, -4, 16, 16, 31, -35, -20, -3, 29, -25, 38, -19, 10, 5, 13, 3, 5, 18, 33, 42, -5, 34, 6, 14, 11, -45, -46, 79, -17, 28, 45, -10, 35, -37, 8, -23, 0, -17, 38, 31, 21, 7, -18, -1, 8, -18, -1, 39, 20, -14, -26, -8, 3, -10, -5, -36, 19, -8, 35, -75, 18, 15, -16, 51, 7, -35, 42, -41, 3, 16, -26, 37, 74, 15, 9, -9, -51, -9, 31, 8, 34, -48, -22, 35, 3, 44, 0, -25, 5, 30, -28, 38, 3, -21, 27, 23, 13, 74, 55, 4, 46, -10, 16, 1, -14, -11, -21, -21, -41, -2, 15, 36, -52, -28, 10, 7, -44, -12, 1, 4, -7, -20, -16, 2, 56, 31, 65, 14, 25, -26, -38, 36, 10, 33, -38, 19, -49, -40, 43, -6, -20, -22, -8, -4, 24, -10, -15, -1, 9, 29, 20, 1, -6, 53, 9, -41, 14, -35, 19, 31, -44, -9, -43, 8, 20, -21, 17, 3, 59, 6, -14, -48, 16, 3, 7, 37, -23, -8, -58, 19, 22, 39, -20, 51, -42, 10, 66, -21, -3, 14, 27, 49, -3, -14, 18, 43, -20, 9, -17, 7, -21, -18, -5, -15, 16, -26, 25, -55, 27, 17, -6, -13, 18, 20, 5, -9, -42, 69, 11, -14, 12, 39, -25, 12, -37, -39, 6, -24, 19, -16, -31, 48, -10, -55, 8, 19, -12, 2, -29, -13, -2, -14, 0, 26, 34, -33, 17, -4, -38, 5, 4, -19, -2, -6, 17, -47, 2, 28, -31, 5, 31, -6, 20, 36, -26, -18, 47, 50, -31, -14, -3, 0, 42, 28, -22, 22, -11, -7, 0, -11, -41, 14, -39, -20, 12, -17, 27, 11, -2, 13, -17, -7, 14, -21, 15, -23, 22, 82, -59, 7, -3, 47, 49, 28, -4, -26, -64, -17, -11, -1, 33, 48, 15, -3, -6, -11, 4, 3, 13, -15, 27, -31, 8, 43, 49, -1, -2, 31, 1, -28, 0, 6, -33, -36, 12, 15, 1, 1, 0, 4, 5, -46, 23, 26, 13, 33, 2, 8, -8, -27, 19, -30, -21, -39, -7, -52, -8, -22, -2, -13, 4, -3, -49, -14, -40, 1, 17, -6, 19, -4, 36, -14, 6, -7, -40, -43, 41, -6, 8, -29, 55, 11, -44, 31, -17, -27, -26, -36, -14, 21, 7, -3, 4, -13, 30, 47, 11, 9, 27, -8, 28, -15, 20, -5, 48, 41, 1, 40, -6, 38, -13, -14, 17, 7, 21, -36, 9, 34, -29, -30, -11, -8, -14, -18, -4, -3, 4, 16, -37, 13, 3, 10, 27, -17, -38, 35, 53, 8, -35, -1, -1, -19, 7, -21, 24, 9, 19, 13, -52, -11, 44, 39, -4, 30, -2, -42, 26, -25, 34, 52, -29, 6, -19, 35, 22, 8, 50, -31, 8, -14, -9, 5, 14, -28, -8, -24, 52, 38, -9, 30, -20, -12, 34, -36, -29, -12, -19, 11, -2, 4, -15, 38, 7, -1, 81, -33, -13, -23, 22, 28, 2, 24, 13, 1, -9, 23, 15, -49, -63, -17, 28, -44, 15, 0, -19, 22, 38, -8, 2, -18, -7, 13, 63, -4, 14, -27, -27, -76, 37, 24, -22, 40, -2, -17, 30, -13, 13, 15, -59, -3, 3, -11, -15, -16, -47, -20, -32, 12, -23, -60, 9, 7, -18, 16, -13, -3, -9, -38, 0, 18, 15, 8, -53, -11, 21, 62, 27, 48, -5, -40, 12, -31, 12, 5, 2, 22, 7, -10, 7, 45, 30, 33, -9, -7, 22, -40, 17, 40, -29, -29, -20, -78, 17, -38, -17, -45, 13, -30, -19, 13, -15, 50, 25, -32, 13, 16, 3, 82, -10, -62, 5, -48, -31, -27, 12, -15, -56, 19, 39, -19, -16, -5, 0, 48, -39, 19, 0, -25, 1, 6, -10, 71, 33, -17, 14, 1, -12, -40, -3, 32, 23, 0, 11, -17, -16, 36, -12, 42, -70, -14, 39, 5, 44, -35, -33, 5, 61, 45, -35, 46, 15, -40, -7, -67, -3, 82, 2, -12, -34, 2, -12, -27, 3, 55, -27, 8, -9, -46, -34, -6, 3, 50, -12, 9, 10, -24, -23, 94, -44, 89, -21, -13, -38, -28, -10, 49, 32, 26, -10, 45, 13, -4, 4, 32, 38, -7, -24, 27, 26, 22, -9, 3, 24, 32, -21, 29, -27, -26, -49, -2, -29, -40, -26, -16, 20, 7, 3, -36, 52, 26, 38, -11, 37, 23, 26, 7, 39, -22, -14, -13, -43, 52, 13, -47, 24, -2, -52, 3, 13, 7, -2, 19, 52, 77, -10, -17, -3, -38, -34, -19, 27, -39, -58, -3, -22, -4, -26, -2, 76, -25, 36, -46, -4, 11, -29, -9, 45, 64, -33, 69, 63, 6, -26, 48, 25, 34, 31, -16, 30, 2, -32, 24, -62, 3, -1, -39, -12, 13, 9, -21, -2, -45, -11, 53, 13, -27, 48, 10, -35, -40, 13, 5, 16, 22, -50, -2, 51, -42, 37, -19, 2, 5, 18, 24, 33, 35, -44, -5, 9, 50, -2, -12, -9, 6, 6, 18, 6, -35, -6, 53, 15, 25, 1, 21, 29, -30, 50, -24, -17, 6, 8, -9, -18, 11, -15, 21, 44, -28, 7, 5, -62, 8, 11, -10, -55, 57, 5, -31, 38, 51, 30, -24, -15, -27, 1, -12, -30, 30, -64, -7, -14, 18, 44, 4, 14, -66, 8, -3, -57, 0, -51, 23, 7, -15, -29, -34, -17, -4, 2, -26, -7, 42, 11, 0, -6, 37, 9, 33, 27, 7, -24, 37, 15, -39, -23, 7, 27, 32, 24, -13, -22, -1, -51, 13, 4, -20, 23, 6, -7, 6, -70, -8, 4, 7, -9, 34, 0, -66, -10, 4, 27, -3, 49, -24, 0, -3, -26, -26, 7, 11, -8, 14, 0, 16, 28, 23, 5, -2, -15, -12, 6, 35, -12, 6, 7, 54, 7, -5, -14, 22, 18, -10, -10, 19, -46, -25, -42, 3, -6, -17, 33, -29, 39, 16, 26, 49, -13, 18, -45, 11, -24, 39, 17, 18, -23, 7, -25, 6, -57, 1, 1, 36, -53, -10, 9, 3, 37, 7, -23, 3, 4, 6, -34, -23, -16, 8, 2, 17, -22, -3, 27, -21, -2, 2, -20, -22, 35, 37, -9, 21, 34, 12, -3, 24, 10, 24, -19, 18, -17, -32, -13, -14, 43, -1, -13, -35, 10, -37, 31, -33, 5, -16, -27, 26, -29, 10, -3, -19, -34, -2, 43, 25, 3, 13, -15, -3, 16, 20, 50, -5, 13, -11, 6, -12, 17, -28, 4, -8, 30, -46, 33, -51, -15, -20, -22, 26, -32, -3, 13, -14, 48, -21, 29, -6, -7, -17, 25, -28, -23, -4, 42, -46, 27, -62, -3, -17, -12, -39, -2, 25, 22, 19, -32, 16, -5, -7, -7, 33, 58, 3, 21, -36, 12, 39, -28, -3, -13, 29, -23, -33, -15, 28, 17, 43, 4, 44, -5, -1, 39, 7, -17, -61, -33, 5, 9, 51, 9, 4, 15, -2, 16, -38, 8, 5, -24, 2, 14, 30, -11, 20, -15, -10, -28, -21, 48, 7, 10, -23, 13, 36, 10, -32, 12, 19, -42, -7, 15, -22, 3, -10, -37, -29, 21, -1, -3, 26, -12, -1, -11, -12, -38, -13, 29, 24, -14, 7, -31, 20, -7, -28, -1, 35, -3, -19, -5, 13, -13, 33, -19, -6, 13, 24, -13, -21, -1, -4, -12, 6, -46, 7, -4, -36, -6, 66, -4, -7, -5, -27, -11, -9, -7, 45, 33, -21, 40, -17, 6, 24, 2, -44, -53, 53, 35, -12, 10, 16, 11, -25, -44, 11, -6, 0, -15, 17, -10, 19, 38, 62, -5, -19, -21, 38, -68, -31, -40, -4, -24, 4, -1, 1, -14, -8, 22, -25, 33, -10, 24, -5, -12, 55, -3, -3, -32, 5, 9, -9, 7, 2, -15, 15, 27, -33, 11, 12, -35, 12, 1, 13, 8, -12, 68, 22, -36, 2, 1, -8, -44, -20, -31, -26, 24, -46, 3, 9, 25, -22, 28, 18, -11, -8, -3, 12, 4, -38, 10, 17, -5, -5, -1, 11, -23, -36, 22, 28, 28, 41, -4, -22, -42, -53, -10, -4, -25, -28, -20, -4, -30, 1, 2, 12, -57, 5, -2, -25, 49, -18, -19, 7, -23, -56, 1, -5, 7, 3, -35, 3, -30, 0, -31, 45, -21, 6, 5, -21, -12, 1, -5, 18, 2, 15, 32, -38, 18, 66, 6, -21, 17, -29, 0, 51, 7, 2, -17, -9, 3, 27, 26, -28, -15, 6, 9, 24, -49, -43, 1, -22, 15, -22, 31, -28, -25, -32, 12, -8, -14, -2, -24, -15, 0, 18, -14, -12, 12, -38, 14, -1, 1, -21, 13, -50, 4, -37, -8, 45, 56, -20, 17, 28, -49, 52, 26, 1, 2, -26, 2, -17, -10, 17, 10, 22, 7, 6, -6, -12, 30, 31, -4, -13, -8, 21, 6, 0, -33, -11, 43, -22, 6, 6, -7, -36, -25, 12, 4, 17, 4, -5, 13, 22, 36, -8, -24, -20, 7, -20, 22, -16, 40, -32, -2, 7, -34, -18, 6, -25, 11, -11, -1, -37, -2, -5, 0, -60, -15, -48, -14, 42, 1, 28, 26, -6, 6, -7, -28, -36, 9, -19, -39, -12, -2, -5, -25, 31, 13, 30, 13, 0, 24, 2, -18, 37, 15, -25, 80, 12, 2, -41, 0, 23, 4, 19, 2, 16, -13, -22, -18, 32, -2, -63, 0, -45, 38, -23, 14, 22, -3, 38, 6, -61, -7, -3, -8, 53, -2, 7, 1, 2, 34, -12, 7, -32, -37, 10, 0, 7, -13, -6, 15, 55, -24, 25, -27, 18, 18, -29, 10, 11, 41, -41, 3, -3, 17, -19, -13, -21, 6, -11, -42, -10, -50, 7, 1, -48, 4, -2, 2, -14, 10, 20, -6, -54, -3, 48, 25, 4, 52, 23, -14, -12, 42, 40, -6, 22, -72, 27, 4, 5, 0, 1, -4, -12, -2, 36, 3, -16, -15, 21, -26, 13, 0, 54, -13, 43, -49, -20, -10, -13, -44, -30, 5, -27, -6, 40, 11, 9, -19, 16, 8, -29, 15, -19, 4, 39, -16, 44, -23, -6, -27, -17, -5, -10, -21, 23, -21, -11, 5, 4, -7, 40, 1, -1, 30, 36, -33, 26, -7, -21, 2, -35, 5, 6, -22, 30, 7, -25, -46, 80, -14, 45, -22, 23, 23, -31, 18, -5, 0, 4, 35, 6, -14, -26, -25, 59, -1, 34, -13, -25, 22, -10, 15, 9, -1, 13, -45, -37, -7, -56, 6, 14, 30, -12, -63, -40, 4, -17, -67, 34, -19, -5, -18, 20, 18, 10, -2, 23, -7, -27, 20, 23, -17, -6, -6, 16, 3, -13, 2, -48, 46, 56, 46, 33, 53, -1, -9, 1, -53, 33, 8, 3, 53, 19, -45, -12, -26, -16, 0, -26, 7, 43, 10, -14, 45, 9, -8, -19, -7, -21, 5, -13, -5, -11, 10, 16, -25, -52, 61, 49, -42, -20, 17, 7, 30, -27, -18, -39, 8, 12, 7, -24, -66, 5, -7, 24, -16, -26, -27, -36, -15, 38, -5, -28, -41, 25, -2, -28, 41, 8, 8, -8, -14, 8, -31, -50, -63, -75, 68, -2, 25, -39, -46, 20, -14, -11, 36, -1, -3, 55, -20, 21, -16, 54, -8, -20, 48, 37, -27, -13, 42, -12, -16, 15, -18, -24, -3, -16, -66, 5, -33, 43, -1, -21, -15, -17, -7, 19, 29, 11, -5, 4, 40, -45, 5, -22, -8, -49, 22, 22, -27, 16, -9, -15, 5, -43, 17, 32, 11, 21, 16, 17, -4, -44, 24, 22, 2, 17, -30, -7, -35, 33, -25, 3, -11, -16, 10, 6, 5, 25, -9, 13, -3, -43, 11, 36, 17, 3, -4, 12, -4, 29, 49, -5, -25, 39, -51, -4, 21, -16, -4, 1, 2, 34, 61, -8, -19, -3, -16, -1, -27, -26, -13, 23, 49, 16, 23, 22, 12, -45, 8, -34, 42, -11, -12, 6, -21, -23, -24, -8, 18, 2, 3, 29, 24, 17, 0, -12, -6, 9, 3, -3, 26, -21, 3, 5, -26, -1, 16, 17, -43, 6, -29, -20, 40, -19, -33, 21, 1, -32, -29, 17, 2, 37, 11, 13, -28, -12, 20, -18, -37, 41, 44, 53, -5, 13, -30, 9, 21, 4, 28, 24, -29, -12, 17, 39, -14, -39, 56, -7, -4, 17, -2, 30, 16, 40, 21, -2, -29, -6, 53, 11, 54, 4, -39, -27, 50, 2, -34, -13, 0, -6, -34, 24, 42, -40, -26, -11, 7, -29, 1, -19, -17, 34, -50, -18, -25, -44, -44, 10, 10, 4, 6, -15, -16, -14, 7, 24, -3, -45, -9, 3, -17, -11, 54, -38, 21, -24, 1, -4, -14, -53, -47, 25, 58, 17, -19, 31, 35, -18, -1, 10, 31, 33, 4, -14, 0, 33, 5, -47, 39, 5, -20, 16, -16, 21, -43, -39, 20, -8, 45, -17, -38, 30, 22, -28, -35, 22, 10, -8, 29, -45, 30, 26, -1, -6, 9, -39, -11, -10, -38, 4, 4, -3, -24, 7, -44, 17, -35, -1, 34, -22, 21, -19, 21, 45, 7, -3, -1, 11, 2, -8, -21, 35, -25, -92, 27, 1, 24, 7, -3, 9, -16, -10, 19, -14, 18, 50, 12, 23, 7, 45, -56, 26, 13, 1, -39, -14, -21, 1, -20, 0, -17, 41, 48, -39, 54, 28, -77, 34, -31, -39, 2, -22, 35, 14, 20, -6, 25, -3, 4, 3, -80, 59, -67, 21, 20, 0, -8, 2, 10, 20, -36, 12, -49, 20, 43, 0, -15, 17, -48, 9, 30, 9, 7, 36, -21, -26, 31, -27, -25, 71, 2, 62, -24, 13, 37, 22, 11, 6, 0, -46, 10, 9, 3, 53, 1, -54, 36, -47, 25, -24, -9, 8, 11, -58, -10, 11, -52, 17, -13, 0, -27, 21, -21, 2, -71, 4, 18, 60, -7, 18, 54, 28, -57, -44, 14, 4, -23, -36, 30, 43, 32, -33, -20, -12, 22, 16, 45, 2, -42, -19, 27, 59, 14, -24, 35, -20, 25, -11, -1, -25, -1, 38, 33, -3, -43, -48, 11, 33, -24, 15, -28, -28, 40, 18, 28, 15, -3, -30, -8, -51, 25, 84, 6, 15, 23, 1, 19, 29, -5, 40, -11, -37, -31, 12, 3, -38, 8, 23, -31, -12, 14, -39, -17, 45, 25, -38, -3, 12, -10, -14, 30, 33, -6, 22, 23, -26, 5, 5, -28, 4, 40, -25, 20, -3, 20, 17, -15, 6, 18, 3, 22, 0, -7, -40, -3, 14, 4, 21, 17, -26, -4, 9, -35, 34, -12, 25, -16, 25, -4, -17, -17, 20, 30, 30, 35, -23, 15, 27, 34, 7, -19, -5, 4, -5, -12, 7, -8, -5, -6, -41, -11, 36, -21, 5, -5, 1, -31, -24, -17, -16, 25, -9, 9, 42, -6, -26, 11, 27, -37, -4, -30, -9, -30, 54, 0, 3, 12, -7, -18, 20, -25, 3, -11, -20, -35, 25, -15, 10, 4, -4, 27, -52, -12, -1, 15, -17, 13, -12, 13, -30, 9, 13, -44, -52, 23, 3, 36, 39, -13, 5, -28, 32, -5, 29, 21, -48, 6, -2, 22, 11, -9, 21, 18, -26, 2, 3, -3, -7, -81, -24, 40, -6, -22, 6, 1, -44, -3, -33, 25, 37, -39, -4, 27, 6, -22, -19, 25, -9, -15, -37, 9, 29, 15, -10, 0, -33, 7, -1, -63, 18, 28, 7, 38, -34, 7, 26, -34, 39, 9, 21, 13, -19, 14, 17, 29, 15, -38, -2, -40, 27, 14, 28, -46, 2, -33, 27, 9, -1, -98, 25, 52, -11, -32, -10, -33, -33, 17, 27, -8, 1, -16, -1, 45, 35, -27, -13, 14, -23, 47, 1, 1, 19, -7, -33, 40, 21, 57, -8, -33, -76, -6, -13, 28, -17, -27, 42, -48, -9, -13, 17, 67, 20, 8, -25, -50, 15, 2, -53, -1, -23, -7, 2, 7, 19, 13, -1, -5, 10, 1, -7, -6, -18, 27, 25, 26, 36, 11, 36, 50, -23, 23, -15, 52, 27, 1, -70, -30, 49, -19, -19, -12, -42, 22, 59, -8, 18, -5, -54, 6, 24, -5, 39, 14, -22, -13, -3, 14, -10, 8, -31, -14, 22, 0, -3, 63, 20, -28, 20, 59, 26, -47, 30, -21, 57, -22, -42, 15, 16, 5, -42, -1, 37, 12, -18, -24, -13, 4, -15, 0, -25, 7, 36, -73, -44, 14, 17, -11, 44, 9, 11, -1, 43, 86, -54, 33, -8, -24, -35, 11, 32, 40, -23, -27, 14, 45, 39, 14, -63, -59, -3, -42, 2, 7, 21, 21, 49, 10, 3, -47, -65, 47, 40, -9, -48, -17, -41, -48, -1, 28, 17, 19, 45, 13, 59, 15, -18, -1, 8, -28, 14, 17, 9, 19, -47, 35, 32, -2, 1, 28, 22, 10, 37, 8, 29, -19, 8, 7, -17, -14, 22, 1, 45, 44, 1, 23, -1, 17, 39, 18, -17, -11, -26, -18, -2, -13, 8, -4, 23, -36, 34, 3, 40, -28, 1, 33, -11, 3, -3, -14, -42, -20, 4, -5, 23, -89, -1, -32, -13, -8, -16, 9, 15, -24, 12, -32, -4, 11, 8, 24, 58, 21, 20, 27, 16, 0, 8, 24, 43, -31, 4, 28, 21, 30, 34, 7, -53, 0, 8, -30, -10, -7, 37, 15, -36, 19, -18, -39, 1, -52, -32, -38, -7, -2, 11, 30, 23, 1, 6, -26, -32, -9, -23, 28, -24, -17, 10, 57, 3, -9, -36, -20, 51, 10, 5, 8, 11, 0, -68, 57, 39, -21, -39, 6, 17, 17, 12, 14, 27, -27, 36, -13, 24, 14, 36, 2, -5, 37, 41, -61, -13, -46, 41, -8, -12, 26, -4, -15, 13, 2, -25, 33, 40, -4, -27, -50, 5, 21, 0, 44, 8, 99, -43, -24, -24, -49, -30, 24, 8, -12, -31, 24, 8, 5, -25, 9, -3, 16, -25, 17, 11, -51, 12, 45, -21, 11, -63, 3, 37, 12, -35, 32, -17, -23, -46, -65, 18, 4, 23, -12, -4, -16, 38, 26, -37, -27, 11, -19, 7, -8, 10, 22, -52, -60, -19, 15, 17, 11, -18, -18, -46, -27, 46, 0, -9, -22, 28, 3, -51, -50, -30, 13, 6, 29, 40, -12, -14, -27, -15, -12, -7, 4, -48, -18, 27, -9, -17, 25, -19, 14, -7, -35, -15, -3, 24, -12, -8, -12, 7, 52, -1, 1, -1, -56, 20, -2, 37, -40, 23, 28, -28, -13, -19, -21, 16, 52, 8, -19, -38, 5, 18, -5, -1, 10, -9, -16, 48, -54, 21, -35, -5, -20, -16, 22, 5, -4, -31, -91, -39, -3, 2, -15, -7, -16, 13, -5, -1, -19, 22, -25, 20, -13, 36, 22, 3, 0, -6, 4, 81, 29, 18, 14, 7, -8, 33, -10, -6, -59, -6, 6, 31, -54, -21, 31, 6, -13, 11, -10, 39, -8, 15, -19, -12, -14, 12, 24, 21, 2, -53, 3, 5, -24, -1, 14, 9, -12, -19, -7, 4, -20, -15, -3, -13, 16, -20, -14}

#define TENSOR_LSTM_LSTM_CELL_RECURRENT_KERNEL_0_DEC_BITS {8}

#define TENSOR_LSTM_LSTM_CELL_BIAS_0 {1, 1, 3, 3, 3, 1, 2, 1, 2, 1, 1, 2, 4, 4, 2, 2, 0, 2, 6, 1, 3, 2, 6, 5, 1, 4, 3, 2, 3, 8, 1, 4, 65, 65, 66, 66, 67, 65, 65, 64, 65, 65, 65, 65, 65, 66, 66, 66, 63, 65, 73, 64, 66, 65, 69, 69, 65, 68, 64, 65, 65, 69, 65, 67, 0, 1, 0, 0, 0, 0, 1, 1, 0, 0, -1, 1, 0, -1, -1, 0, 0, 0, 1, 0, 0, 0, 0, 0, 0, -1, 0, 0, 0, 0, 0, -1, 1, 1, 3, 3, 4, 1, 3, 1, 2, 1, 0, 2, 5, 4, 2, 2, -1, 2, 7, 2, 3, 2, 6, 4, 1, 4, 3, 2, 3, 8, 1, 4}

#define TENSOR_LSTM_LSTM_CELL_BIAS_0_DEC_BITS {6}

#define LSTM_BIAS_LSHIFT {7}

#define LSTM_OUTPUT_RSHIFT {6}

#define TENSOR_GRU_GRU_CELL_KERNEL_0 {3, -10, 51, 45, 42, -37, 11, 24, -42, -78, 62, 32, 0, -17, 60, 70, -2, -52, 19, -5, 49, 71, 13, -31, 61, -37, -17, 44, 11, 33, -36, -45, 28, 19, -17, -9, 29, -9, 56, 66, -14, -3, 59, -32, 28, -45, 4, 66, 4, -6, -45, -3, 44, -55, 2, -18, -9, -45, -17, 55, 34, 16, 65, 13, -42, 51, 3, 23, 39, -60, 6, -33, 72, -89, -76, 54, -34, 54, -63, -3, -68, 70, 36, -13, 23, 14, -30, -23, 6, -4, 9, -56, 67, 66, 10, 16, -11, -8, -5, 14, -53, -22, 60, 8, 28, 20, -59, 13, 42, 83, -46, -23, 63, -23, 9, 41, -11, 21, 15, -65, 22, 4, -68, 21, -48, 60, -7, 23, 51, -40, -17, -55, 29, 32, -12, -38, 47, 39, -55, -13, -28, 13, 20, -25, -35, -1, -67, 1, -32, 37, 26, -57, -63, -14, 20, 51, 12, 37, 11, 23, 64, -43, -45, -2, 7, 48, -36, -15, 15, 2, -61, 32, 18, 49, 16, 13, -36, 58, -55, -49, -18, 44, -54, 5, 4, 5, 14, -24, -46, -5, 35, -12, 2, 67, -18, 24, 3, 3, 46, 23, -86, -49, 41, 32, 14, 12, 23, 37, 53, 13, -8, -19, -33, 15, 22, -65, -29, -1, 19, 6, 56, -50, -11, -39, -45, 29, -47, -3, -31, -2, 19, -31, 25, 53, 33, 34, -2, -3, -27, -33, -39, -14, 22, 27, -31, -2, -27, 15, -16, -1, -36, 54, -34, 24, -65, 62, 13, 38, -38, -1, 27, 54, -25, 26, -21, 38, 20, 14, 56, -43, -68, -30, -66, 12, -75, 23, -58, 5, -11, -56, 15, 5, 21, -20, 41, 14, 15, 50, 50, -33, -8, -31, -16, -9, 34, -9, 7, 64, -20, -19, 26, -23, 12, -61, -27, 32, -1, 26, -6, 39, -47, 2, 14, 43, 36, -28, -29, 24, -66, -22, -20, 62, 55, -14, 57, -38, -24, 5, -7, 41, 84, 13, 5, -48, -18, 58, 62, 13, 67, -68, 52, 34, -51, 3, 15, -9, -63, 69, 31, 15, -11, 24, 2, -21, -46, 46, 12, -62, -17, -36, 8, 42, 9, 25, 26, -46, 49, 50, -72, 7, 78, -2, 20, -51, 1, 45, -41, -4, -5, 41, 53, -4, -19, 25, -50, 19, -34, 39, 9, 43, 2, 18, -45, 26, 46, -13, 61, -57, -65, -7, 36, 1, -14, 38, 7, 50, 38, 33, 11, -25, 18, -34, 51, -26, -28, 29, -71, -43, -22, -41, -11, 69, -28, -50, 19, -20, 35, 32, -24, -46, -32, 43, -69, 53, 0, 62, -23, 36, 17, -12, 30, 2, 37, 27, -22, 41, 9, -7, -40, -17, -52, -28, 11, -10, -27, -46, -15, 26, -70, -33, -35, 4, 10, -4, -60, -22, -20, 22, -11, -41, 27, 22, -27, 45, 57, -13, -22, 34, 13, -2, -32, 57, -11, 58, -2, 9, -45, -38, 65, 53, -15, 0, 41, -11, 32, -26, 1, 37, -79, -53, -22, -38, -41, 34, 53, 24, -12, 23, -33, -36, 31, -54, -23, 35, 13, 25, 29, -46, -14, 34, -29, -30, -18, 12, -2, -12, 40, 26, 26, 53, -14, 21, -59, 34, 27, 29, 1, -17, 9, 3, -56, 12, 26, -23, 1, 59, -56, -22, 42, -5, 37, 25, 31, -38, -12, -2, 7, -35, -38, 44, -50, -5, -34, -56, -25, -23, -50, -58, -7, 34, -19, -7, 27, -43, 10, -19, 39, 29, 46, 38, -13, 41, -30, -39, 4, 19, -17, 44, 33, -7, 13, 2, 30, 40, -39, 48, -5, -17, -45, 51, 52, -64, 24, 17, 8, 37, -1, -15, 25, 36, -15, 47, 0, 45, 32, 31, -56, -48, 38, -52, -70, -27, -40, 52, -45, -58, -35, -34, -7, 12, 44, -50, 25, 56, -43, 1, 19, 48, 8, 13, 24, 22, -29, 59, -24, 41, -21, 21, -13, -55, -15, -7, -48, -9, -30, -22, 23, -47, -43, -12, 21, -48, 46, -13, -46, 20, 4, 5, -25, 21, -36, 41, 10, 41, -32, -44, 35, 54, 24, -2, 16, -13, 4, -13, 35, 64, 35, -16, -8, -33, 46, 8, -25, -16, -69, -48, -14, -28, 33, 20, 32, 40, 23, 44, 48, 29, 63, 60, -50, 23, 58, 19, 1, -46, 22, 60, 21, 5, 23, 24, 21, -49, 9, 58, 15, 31, 36, -31, -49, 55, 46, -19, -54, -59, 10, 21, -45, -47, 47, 34, -6, 0, -22, 13, -24, -44, 39, -38, -12, 35, 32, -42, -24, 7, 71, 0, -9, -4, -43, 26, 51, 28, 46, -53, 32, 38, -17, 2, -9, 41, -14, 21, 66, 78, 22, -43, 43, -16, 46, 15, 3, 33, -59, 5, 7, -45, -64, -22, -40, -49, -3, 4, -30, 1, 70, -18, -45, -60, 34, -17, 23, 39, -10, -41, -29, 11, -53, -64, -15, 11, 36, 28, -18, -39, 36, 14, -18, -66, -28, 5, 44, -45, -27, 9, 29, 24, 43, 36, -13, 55, -10, -28, -24, -28, -12, 36, 41, 16, -4, -17, 15, 32, 23, 21, -56, -9, 43, 71, -35, 53, -51, 14, 8, 59, -2, 41, 31, -31, -60, 21, 0, -77, -36, -14, -26, -20, -39, 23, -23, 12, -49, -6, 18, 7, 14, -34, 35, -35, -4, 30, -2, -36, 52, -19, 5, 16, 68, 56, -52, 27, -39, 11, 4, -35, 26, 8, 52, -58, -29, -38, 36, 60, 36, -19, -19, 77, -3, -53, -18, 24, 14, 9, -36, 26, -48, -48, -17, -12, 21, -32, 39, 35, 16, -67, -61, 35, 36, -35, 16, 16, 29, 14, -24, -10, 26, -63, 12, -13, -49, -42, -47, -13, 44, 1, 66, 31, -58, 49, -60, 40, -44, 27, -10, 34, 51, 27, 47, -9, 43, 47, -36, -25, 47, 0, 23, -1, 83, -34, 25, 66, 59, -61, -50, -1, -13, 54, -37, 3, -51, -24, 35, 19, 67, -19, -25, -3, 62, -13, -13, 24, -24, -6, -17, 35, -61, 49, 22, -8, -68, 3, -62, -30, -25, 11, -32, 12, -72, -65, 19, -7, -19, -48, 13, 22, 54, 4, 40, -33, -7, -14, -29, 8, 11, 51, 29, -5, -30, 52, -30, -55, -10, 29, 8, 34, 43, -37, 1, -44, -40, -27, 9, 30, -25, -35, 11, -4, 32, 35, -46, -17, -19, -42, -9, -25, -46, 49, -33, -11, 16, 50, -6, -23, -17, -51, -10, -30, 40, 59, -24, -15, -26, 15, 24, -45, 16, 61, -57, -44, -70, 57, -48, 20, -7, 51, -10, -57, 54, 16, -13, -34, -50, 39, 5, 4, 31, -43, -26, -25, 42, 4, -67, 57, -49, 26, 51, 24, -14, -10, -1, -33, 49, 44, 26, 23, -43, 30, 50, -48, -1, -7, 38, 62, 29, -15, -45, 16, -30, 35, 20, -9, 26, -49, -43, -32, -28, -33, -7, 25, 38, -63, -19, 57, 25, -40, -28, 4, -43, -59, -40, 55, -46, -20, 9, 56, 30, -52, 28, -1, -41, -22, 0, -61, -42, 79, 36, -65, -11, -13, 4, 25, -15, 41, -47, 9, -21, 55, -50, 35, 36, -53, 9, 10, 49, 24, -11, -34, 8, 26, -2, -49, 40, 23, 24, -62, -17, 43, 30, -44, -21, 13, -13, -38, -49, 0, 34, -17, -29, -2, 40, 46, -51, 69, 34, 10, 4, 52, 0, 45, 47, -14, -19, 21, -29, -50, -24, 11, -48, -21, 52, -42, 39, 11, 31, 49, -36, -5, 33, -66, 31, -29, -55, 73, -33, 17, 21, -27, -2, -21, -43, -7, 50, -5, 38, -23, -26, 6, 20, -27, 22, 25, 13, -12, -34, -65, 20, 56, 46, 34, -42, 55, -5, -64, -5, -41, -51, -13, 16, 9, -54, -68, 57, 1, 42, -35, 21, -47, -3, -31, -50, 47, 18, 32, -53, -39, 42, -31, -28, -11, -28, -45, -31, 17, 24, 52, -56, 27, 42, 36, -23, 59, -14, 6, 2, -23, 3, 49, -21, -26, 10, 8, -10, 30, -30, -53, 22, -47, 46, -14, 31, 24, -27, -34, 1, -11, 26, 13, 26, 33, 3, 0, 27, -13, 39, 0, 9, 19, 23, -17, 52, 1, -23, 32, -3, -12, 54, -33, 13, 41, 14, -34, 58, 6, -37, 23, 26, -50, 1, 16, -39, -33, -2, -2, 29, -5, -51, -23, -14, -32, -30, -47, -29, 26, 37, -24, 29, 43, 22, -59, -3, 15, -25, -16, 1, -35, 22, 7, 37, -7, 30, 24, -26, 37, 25, 9, -51, -28, -17, -11, 24, 36, 11, 26, 31, -52, 38, 36, -17, -3, -53, 46, 12, -28, -26, -19, 4, 37, -39, -25, -36, 52, 26, 57, -17, 1, -10, -51, 17, 55, -64, 35, 32, 2, -19, -4, 26, -52, -23, -36, 35, 10, 42, 36, 4, 20, -18, 58, 29, -26, 40, -18, -56, 28, 51, 19, 3, 14, 31, 6, -28, -67, 7, 41, -23, 20, -37, -20, 3, 44, -41, 32, 0, -5, 12, -26, 1, 20, 22, 27, 11, 31, 0, -27, -24, -2, -10, -41, -25, 37, 59, 6, 58, 27, 14, -47, 50, -18, 30, -43, 37, -32, 43, 19, -37, -13, -52, 16, 34, 36, 29, -57, -22, -8, 49, -9, 20, -32, -21, 5, -23, 0, -21, -52, -17, 36, 25, -36, -26, -70, 1, -20, -14, 6, -8, -27, -54, 44, 40, -7, -25, -32, 43, -22, 44, 38, 7, 14, -37, 50, -13, 18, 80, 17, -32, -47, 27, -3, -13, 51, -55, 30, 40, 0, -14, -14, 19, -30, -30, -43, 3, -37, 24, -24, 54, 5, -17, 7, 60, 53, -28, -50, 36, -40, -40, 26, 24, 10, -36, -60, -22, -9, 63, -56, -14, 23, 16, 40, -50, 53, 69, 60, 2, -12, 33, 53, -48, 42, 1, 16, 4, -48, 13, 33, -30, 61, 71, -31, -11, -4, 53, -9, -9, 18, 58, 59, -13, 44, -13, 15, 29, 8, 2, -33, 39, 55, -51, -21, 35, -18, -4, 36, -33, 10, -40, 40, 10, -40, 46, 41, 38, -4, -4, -1, 12, 3, -9, -48, 32, -29, -15, 7, 47, -1, -19, 48, 60, 11, 29, 16, 4, 4, -8, 37, 24, -52, 28, 22, 34, -44, 37, -34, -34, 27, -25, 38, -40, 24, 18, -23, -20, -32, -44, 17, 51, 35, -72, 16, 4, 20, -31, -26, 15, 17, 30, -49, 15, -5, 42, -46, 43, -10, 31, -11, 24, -54, 40, 3, -47, 64, -9, 27, -30, -54, -11, 23, -42, -22, -42, -8, -47, 51, 14, 15, -11, -19, -25, -43, 36, -31, 11, -33, 54, -13, 39, 27, 23, 8, 1, 60, 8, 54, -32, 49, -1, -13, -21, -48, -46, 0, -2, -43, -54, -36, 38, -22, -43, 29, -41, -7, -75, 53, 39, -43, -32, -39, -23, 34, -24, -17, 41, -50, 35, 9, -42, -45, 64, -35, 1, 30, 24, 30, -13, -8, 60, 41, -31, -30, 22, 31, 8, 54, -19, 34, 47, 38, -35, 35, 17, 33, 24, 22, 0, 87, 30, 26, -38, -9, 3, 41, -31, -31, -13, 12, 21, -49, -33, 62, -17, -65, 8, -19, 10, 17, 6, -47, 11, -35, -30, 13, -67, 28, 51, -45, -44, -34, 36, 28, 14, 31, -44, 32, 21, -55, -55, -35, 7, -26, -17, 28, -9, -1, -46, -78, 59, -12, -38, 18, 23, -30, -27, 19, 58, -28, 39, -8, 69, -1, 0, -39, -5, 59, 52, -2, -40, -13, -55, 41, 27, 19, -5, -34, 12, 8, 1, -45, -31, 58, -54, -62, 6, 37, -23, -20, 21, 43, -13, -24, -40, -39, -26, -20, -35, 31, 38, 23, -44, -8, -20, 12, -12, 27, -12, 33, 10, 0, 12, 31, 53, 28, -14, 48, 13, 45, 42, 35, -11, -21, -40, -32, 58, 8, -44, 18, -31, 56, -65, 38, 1, 44, -24, 17, -5, -19, -16, -40, 38, -15, -18, 16, -39, -20, 18, -15, 43, 0, 75, 2, 2, -16, 51, 41, 40, 1, -40, -55, -57, -14, -11, -46, 52, -25, -17, 41, 53, -33, -51, 28, 20, 48, 45, -6, -54, 42, 3, 63, -41, 11, 38, -17, -2, 30, -41, -46, 39, -35, 8, -49, -8, 33, 29, -14, 38, 48, 15, 59, -27, -61, -53, -7, 23, -37, 45, 47, -27, 35, -63, -7, -37, 37, 39, 6, 14, -40, -49, 33, 37, 15, 38, -51, -40, 44, 18, -21, -29, -27, -13, -50, 14, -2, 12, 26, -42, 20, -40, 38, 7, -22, 29, -7, -16, -37, 42, -53, 7, -23, -12, -19, -15, 48, -16, -2, 59, 31, 0, -9, 2, -6, 46, -34, -57, 44, 45, -57, 2, -13, 31, 19, -26, 61, 55, -30, -35, 34, -41, -8, -32, -25, 65, -26, -44, 15, -34, 26, 1, 6, -50, -7, 42, 24, 32, -5, -10, 5, -26, 4, 23, -59, -53, -14, 13, 15, -18, -22, -38, -3, -24, 36, 32, -66, 32, -31, -22, -57, -5, 49, 40, 28, 2, -51, -46, -40, 44, 17, -38, 9, -18, 25, -39, 25, -33, -45, 40, -21, -15, 40, -7, 37, 21, 9, 54, -53, -57, 15, 19, -42, -56, 8, 0, 43, -6, 38, -49, 20, 35, 31, -7, -24, -14, 50, -52, 17, 25, -41, -4, -4, 2, 11, 41, -53, 24, 29, 31, -14, -2, -44, -54, -24, -38, -16, -10, 56, -4, -21, 38, -7, -1, -2, -47, 34, 33, 9, 37, 31, -35, 34, 48, 20, -50, 7, -14, 15, -22, 53, -54, 48, -65, -32, -52, -46, 8, 42, 7, -31, 20, 49, -12, -45, 50, 58, 56, -4, 47, 5, -51, 21, -35, 23, 18, 47, -21, 6, -10, -6, -45, -27, 37, -7, 25, -45, -34, -21, 53, -43, -23, -19, 14, 19, 58, -2, 10, -20, -18, -26, 30, 17, -44, 9, -27, 25, -30, -35, 16, 6, -62, -38, 54, 50, -28, 22, 50, -37, -9, -37, -16, 36, 10, -13, -36, -41, 39, -10, 34, -20, -30, -4, 55, 51, -30, -43, -27, -25, 61, -45, -1, -20, -1, 7, -38, -1, -16, 58, -27, -32, -34, 19, 39, -13, -60, -40, 8, -34, -32, 30, -41, -16, 0, -2, 44, -4, -24, -32, -43, 45, -76, -3, 59, 20, -8, -36, -4, -6, -15, 6, 29, -19, -53, 34, 5, -14, -7, 23, 32, -35, -23, 30, -34, -7, 51, -2, -29, 16, -22, 9, -3, 16, -24, -41, 64, -37, -26, -40, 4, -29, -35, -26, -10, 26, 2, -15, 22, -15, -30, -11, 32, -3, 13, -7, -21, 30, -20, 20, 46, 40, 10, 7, -64, 35, 12, -8, 28, -64, 16, 17, -54, -23, 43, 1, -54, 41, 26, 16, 10, 27, -47, 49, 18, 40, 44, -20, 26, -3, -36, 14, -19, -57, -51, 28, -31, 60, 13, -46, 46, 32, 46, -39, 9, 48, 15, -42, -26, 42, -56, 3, -31, 3, 47, 1, 56, -1, 3, 12, 15, -38, -47, -25, -8, -3, -50, -9, 3, -25, -45, 35, 34, 0, 47, -59, -25, 23, -38, -5, -4, -45, -1, -53, -2, -3, 15, -18, -45, -46, 7, 19, 54, 19, 22, 34, 27, -55, -58, 48, 19, -15, 24, -49, -35, -59, 36, -35, -36, 17, 11, -54, -27, 17, -38, -18, -18, -40, 1, -48, -36, -39, 36, 53, 31, 0, -69, 73, 48, 52, -35, -17, -44, -28, 21, 15, 17, 39, 27, -33, -8, -51, -55, -56, -42, -52, 7, 40, 50, -4, 18, 54, 33, 19, -19, -13, -9, 24, 43, -43, 19, 57, -43, -16, -18, -22, 51, -44, 35, -42, -27, 55, 14, -24, 45, -22, -2, -40, -27, -29, -10, -21, 4, -44, -11, -46, -54, -30, -13, -15, 35, -46, -8, 40, -54, 38, -16, -50, 16, -41, 48, -22, 2, 39, 42, 10, -5, 12, 43, 3, 37, 6, 2, 3, -34, 10, 38, -28, -27, 32, 31, 10, -8, 2, -13, 45, 45, -40, 34, 35, -67, -29, 13, -18, 39, -27, -25, -12, -23, 10, 26, -35, -3, 3, 58, -24, 23, -7, -3, 41, -57, -34, -13, 6, -10, 10, 42, -21, -41, 39, -14, -4, -41, 22, -57, 9, -8, -43, 1, -12, 46, 29, 49, 42, 48, 3, 13, 28, 12, 50, -26, 1, 52, 2, -49, 10, -54, 46, 40, -56, 29, 5, 39, -28, 28, 15, -46, 5, 18, 26, -32, 33, -2, 20, -17, 41, 1, -4, 1, -17, 21, 11, -24, -14, 4, -30, 0, 40, 16, -39, -10, -33, -8, 38, -55, 13, -44, -23, -28, -28, -6, -31, 33, -52, 4, -48, 65, -1, 42, -30, 37, 41, -5, -48, 29, 50, 53, -59, 47, -62, 44, -31, -21, 43, -45, -50, 7, 3, -8, -9, 45, -47, -39, -17, -22, 29, -6, -48, -38, 45, -45, 28, -34, -53, -51, -21, 4, -5, 19, 36, 16, -6, -13, 49, -60, 6, 58, 2, 61, -27, -36, -4, -26, 12, -13, 40, 2, -73, 20, 20, 6, 25, -54, -34, -50, -38, -47, 0, -4, -50, 21, 15, -17, 4, 12, -43, -8, 5, -39, 27, -46, 2, 32, -36, 14, 3, 29, -34, -16, -57, -4, 16, -20, -37, 14, -38, -57, 26, -55, -51, 53, 48, -41, -25, -8, 26, -39, 22, 2, 46, -38, 22, 55, 51, -24, -44, -22, 28, -29, 17, -47, -7, -18, -37, -27, 16, -55, -39, 20, 62, 41, -15, -18, 39, 22, -36, -35, 7, -41, 36, 41, 2, -16, 12, -14, 28, -67, 10, -30, 9, -19, -60, 7, -1, 45, 43, 55, -31, -26, -37, -52, -34, -47, -3, 30, 49, -8, -28, -4, -8, -19, 23, 3, 28, -14, -8, -58, -53, -14, -12, 1, -59, -19, 55, -26, -28, -32, 38, -53, -41, -12, -11, 46, 12, 43, 47, -45, -12, 5, 24, -53, -35, 24, 14, -1, -16, -57, -25, 36, -53, 17, -31, 4, -15, 49, -58, -40, 26, -38, 50, 17, -25, -26, -7, -53, 31, 52, 38, -22, 3, 29, 10, -6, -29, -22, 33, 7, -11, 40, 47, 41, -45, 8, -45, -53, 24, -47, -43, -14, -5, -58, 45, 28, 66, -1, -19, 52, -15, 26, -15, -4, -8, -29, -31, 25, -49, -24, -1, 3, -26, 12, 21, -2, -17, 41, -33, -15, -29, -21, 27, 32, 19, 58, 7, -12, 43, -6, 40, 43, 43, -33, 60, -40, 21, -37, -32, 52, 21, 16, -55, 35, -17, -54, 58, -17, 33, 10, -36, -50, -8, -24, -42, 35, 25, -48, -3, -39, 18, 15, -37, -54, 42}

#define TENSOR_GRU_GRU_CELL_KERNEL_0_DEC_BITS {8}

#define TENSOR_GRU_GRU_CELL_RECURRENT_KERNEL_0 {39, 86, 2, -22, 3, 9, -74, 22, 10, 66, 35, -17, -1, -22, -16, -10, 7, 9, -32, 55, -47, 37, -47, 9, 35, 20, -57, -12, 1, 11, -35, 5, -32, 3, 16, 18, 25, -47, 3, 7, 2, 25, -17, 15, -13, -19, -15, 17, -33, 23, -10, -17, -42, 6, 19, 48, -15, 12, 2, 44, -7, -33, 22, -68, 25, -40, 36, -21, 31, 7, 0, 4, 9, -30, 2, -22, 8, 44, 0, -10, 4, 40, 20, 18, 3, 20, 22, -9, -16, -50, -28, 78, 0, -53, 32, -4, 15, 26, 25, 1, 21, 37, 27, 6, 31, -7, 36, 0, -7, -3, 52, -16, -14, -23, 19, -29, -1, 9, -1, 33, 25, 18, -14, -50, -35, 16, -27, -36, -21, -20, 30, 23, 15, -31, -13, 20, -12, -28, -9, -21, 3, -8, -45, 35, -29, -27, 32, -13, 19, 25, 49, 29, -22, -44, -28, 18, 26, 4, -26, -12, 15, 18, 19, 60, 4, -2, -1, 62, 65, -30, -13, 34, 7, 61, -5, -12, -4, -19, -32, 5, 3, -15, -1, -20, 12, 29, -37, -17, 5, 3, 11, -34, -36, 8, 11, -31, -5, -15, 9, -10, 47, 60, 25, -17, -16, 20, 34, 77, -10, 19, 60, -51, -17, 29, -5, 58, -9, 53, -37, -9, -28, -12, -11, 29, 2, -42, -62, -37, 19, -44, -9, -56, 52, -27, 5, -7, -30, 9, 50, 30, -9, -17, 31, 38, -42, 42, -33, -19, -10, -16, -29, 6, 13, -9, 38, -18, 6, -26, -16, -12, 11, -52, 8, -21, -31, -24, -29, -20, -2, -34, 29, 7, -58, 12, 59, 4, 40, -15, 23, -24, 0, -31, -42, -21, -12, 16, 11, -62, 9, 4, 5, -14, -16, 8, 8, 12, 9, 55, -58, -23, 11, -7, 36, -27, -32, -14, -19, -35, -4, 6, 52, 23, 58, 25, 55, -67, 2, -36, -28, -39, 1, 37, 12, 11, -51, -31, -27, 10, 0, -9, -1, 26, 21, 9, 66, 1, 65, 1, 26, 21, -19, 47, -15, -15, 11, 16, -22, -20, 1, 1, 14, -37, -41, 16, -7, 14, 19, -1, 10, -23, -4, 3, 81, 37, -38, 4, 32, -7, 16, -27, -18, -32, -9, 29, 32, -14, 51, 28, -11, 38, -42, -15, 36, 2, -10, -41, 0, -41, -23, 4, 4, 48, 3, 13, 59, -29, -13, -82, -20, -19, -9, 39, -12, 0, -4, -11, -3, 4, -38, -6, 46, -21, 17, 9, 10, -36, -39, -16, -32, -32, -50, -12, 11, -37, -11, -32, 55, 12, -46, 12, 18, 3, -25, 3, 25, -1, -23, 33, 26, 42, 11, 67, -34, 5, 21, 40, -19, -20, 54, 33, -17, 12, -50, 1, -42, -1, 25, 80, 12, 24, -21, -34, 42, -8, -11, 14, 59, 12, -11, -24, 15, -19, 6, -28, -26, 14, -1, 11, 3, -4, -13, 24, 50, -11, -25, 7, -28, -12, -41, -31, 20, -41, -10, 19, -41, -6, -5, -16, 24, -13, 22, -8, -13, -37, 40, -11, -13, 10, -63, 9, 34, -40, 13, 17, -37, -10, -16, -18, -50, 28, 39, -26, -53, 7, 26, -6, 14, 11, 37, 11, -13, 4, -3, -57, 12, 12, 10, -22, 3, 7, 64, 17, -16, 10, 10, 15, 21, 11, 17, -47, -6, 40, 22, 41, -11, -4, 13, -7, -25, 3, 21, -34, 22, -43, -23, 24, -51, 7, -55, -1, 15, -38, 38, 26, 0, -9, 38, 15, 1, 48, -15, 32, 37, -13, -26, 19, -8, 58, -35, -39, 9, 33, 31, -16, -29, -26, -6, -24, -81, 9, -7, 9, -5, 28, -41, -41, -6, 7, -12, 25, 3, -12, 3, 7, -48, 9, 8, -28, 63, 6, 8, 0, 74, 27, -11, 13, -22, -31, -33, 16, -9, 2, -23, 33, -12, 24, 32, 24, -21, 24, 11, -29, 4, -41, 25, -66, -1, -7, -56, 1, 59, 16, -25, 1, -28, -53, 34, -22, 1, -29, -7, 10, 42, 79, 53, -1, 65, 67, 37, -5, -45, -1, 9, 29, 31, 10, 4, 14, -30, -51, -21, 42, 31, -57, 20, 32, -68, -42, -28, 31, -10, 18, -61, -46, -16, -11, -15, 34, -14, 40, 68, 22, -21, 7, -5, -11, -13, -4, -19, -49, 17, 6, 46, -10, 19, 30, -13, 17, -37, -36, 12, 38, 46, 16, 43, 64, -5, 2, 50, 6, -39, 8, -11, -45, 31, 16, -7, 40, -36, 41, -2, 31, 33, 2, 23, 49, -39, 43, 10, 34, 31, 7, -21, 34, 42, 30, 15, -26, 5, -24, -8, -12, 22, -48, 20, -17, 32, -1, 44, -10, 6, -13, -15, 0, 34, -22, 29, 48, 2, -36, -25, 39, -6, 4, -2, -55, 6, 8, -19, -57, 24, 37, -43, 17, -20, -29, -28, 21, -21, -5, 20, 54, 0, -9, -17, -28, -13, -37, -23, -27, -20, -26, 8, 31, -43, -71, 56, 30, 2, -8, 28, 16, -36, -25, -12, 26, 44, 12, -4, -17, -7, 39, 6, -10, 50, -16, -38, -33, -20, -7, -12, -56, -25, 45, 41, 8, 51, -2, 21, 25, -65, 0, 30, -10, 10, 11, 3, 38, 26, -20, -52, -14, 0, 44, 6, -3, 12, 51, -58, 13, 17, -5, 1, -5, 61, 60, 5, 81, -13, -27, 8, -30, -38, -39, -11, -22, -19, 0, -20, 18, -16, 3, -36, -38, -26, 9, -24, -15, 29, 12, 43, 5, -57, -43, 39, 8, 6, -40, -48, -16, -47, -37, 5, -4, -19, -46, -43, -40, 53, -17, 89, 22, 27, -5, -1, 18, -43, -7, -24, 27, -14, 16, -27, 24, -15, 12, 9, 21, -16, 53, 0, 64, -18, -38, -42, 53, -23, 79, 50, -42, -22, 19, -11, 0, -26, 24, 4, 37, 26, -23, -4, -6, 55, 28, -21, -43, -1, -4, 13, 30, 6, 5, 2, -54, -21, -26, 7, 42, 60, -11, -19, 34, -32, 1, 41, 11, 11, 4, -16, -97, 42, 68, -36, 12, -31, 15, -5, -37, 33, 18, 34, -39, -3, 13, 60, 77, 43, 26, 22, 51, 4, 33, -19, -40, -53, 10, 9, 8, 32, 24, 0, 12, -25, 20, -10, -59, 37, -19, -22, -12, 19, 20, -29, 21, -25, 4, -18, 14, 24, 12, 36, 12, 30, 11, -62, 7, 29, 19, -4, -16, 12, 3, -3, -29, 6, -6, 2, -6, -28, -44, 26, -27, -17, 25, -51, 4, -57, 39, 37, -1, -25, -21, -20, 13, 8, 34, -23, -18, 15, -8, 14, 5, 34, 14, -46, 2, 41, -28, 49, 8, -16, 39, -19, -5, 26, 11, -7, 24, -22, -48, -4, -14, 16, -3, -7, -7, 10, -3, -7, 60, 39, 5, -6, -42, 22, 25, -37, 39, -22, 3, 10, -1, -49, 2, -26, -34, 33, -9, -8, -9, 11, 33, -38, 12, 31, 13, 5, -22, -4, -6, -55, 14, 0, 10, 11, -23, 0, -23, 11, 32, 12, -20, 19, 8, -8, -39, -5, 43, -18, 18, -37, 43, -1, 6, -30, 63, -10, -58, 6, -20, 19, 11, 21, -38, -25, 31, 33, 36, -24, -56, -1, -29, -5, -2, -37, 8, -11, 8, -4, 21, 2, 4, 10, 80, 19, 6, 19, 6, 17, 10, -10, 18, 33, -2, 24, 15, -23, 38, -29, 20, -6, -1, -8, -47, 30, 41, 34, 33, -28, 8, -27, 10, 66, 36, 19, -6, -12, -15, 9, 10, 34, -26, -18, 6, 37, -45, 46, 24, -28, -34, 27, -32, 9, 29, 17, -40, -47, 56, 31, -10, 9, 16, 12, -43, -14, -3, 11, 25, 24, 32, -20, -14, -3, 6, -14, -39, -28, -15, -33, -10, 12, -45, -46, 34, -53, 21, 26, -17, 11, -10, -1, -7, -28, 13, 0, -11, -19, 42, 2, 6, -9, -1, 41, -20, -18, -16, 20, -34, 32, -39, -55, -22, 28, 82, -36, -11, 2, -43, 50, 52, -44, -2, -47, 25, 12, 40, -54, 26, -36, 7, -16, -23, 42, 15, 3, -16, -3, 32, -9, -4, -16, 11, -25, 54, 1, -13, -3, -9, -26, 4, 40, 3, 14, 34, -29, -15, 53, -6, 42, -6, -11, 7, -35, -51, 16, -6, 5, -13, 36, 14, 46, 24, 33, -17, 52, 13, -5, -36, -6, -24, -53, -9, 20, 0, 22, 24, 4, 2, 48, -33, -6, 18, -4, 9, -6, 18, -5, -40, 19, 64, -13, 72, 59, -8, -1, -49, 2, -5, 0, -3, -21, -11, 35, 19, 39, -3, -70, 10, 64, -26, 19, -9, 14, 33, 10, 12, -6, 45, -43, 10, 9, -35, 34, -15, -43, -12, -29, -30, 14, 47, 18, -46, 12, -11, 48, -5, 46, -10, -12, -8, -9, 7, -29, -35, 47, 26, 21, -24, 31, -8, -25, 27, -9, -10, -28, 35, 1, -32, -19, -8, 4, 31, -11, 4, 21, 11, -51, 35, 16, 1, -19, -16, 23, -20, 17, 15, -50, 9, 44, -20, 39, 0, 2, 1, -25, 0, -2, -23, 8, -7, 39, -20, 34, 48, -14, 29, -26, 11, -65, 1, 14, -13, 47, -12, -5, -10, -16, 2, 24, -32, 62, 45, 38, -17, -8, -12, -15, 7, -4, -36, -34, -42, -13, 30, -34, -21, -44, -5, -34, -22, 22, -28, -9, -25, -40, 13, 36, -6, -21, -19, 20, -23, -56, -26, 24, -52, 0, -14, 4, 51, 39, -32, 43, 41, 35, -25, -3, -5, 35, 11, -44, -20, -37, -13, -38, 14, -5, -2, 44, -20, -13, 52, 15, 7, 5, 24, -22, 2, -31, 63, 33, 34, -57, 39, 58, -46, -59, -3, -12, 8, 63, -21, -15, -2, 24, 55, -17, -16, 8, -25, 34, 2, -11, -32, 9, -47, 6, -38, 36, -10, 9, 1, -4, 48, 10, -11, 37, -11, -23, -6, -11, -30, -43, -25, -47, -20, 36, -24, 16, -29, 15, -17, -24, 16, 29, -9, -13, 24, 11, 34, 40, 2, -20, 1, 28, -43, 25, 43, 9, 12, 21, 4, -20, 29, 36, 19, -70, -72, -27, 2, 58, -34, 18, 24, 21, -15, -81, 29, 7, 76, 48, -41, -11, -3, 33, -19, -10, -1, -10, 5, -14, 17, 12, 11, -8, -5, 5, -34, 12, -18, 7, 12, 48, -20, 7, 22, 35, -15, -36, 17, -48, 23, -36, -14, -1, -14, 16, -5, 52, -5, -14, 10, 0, -6, -4, -12, -2, -37, -9, 39, -3, -69, 4, -23, -42, 26, 32, -21, 21, 41, 13, 38, -3, 35, -23, -21, 0, 2, -48, 62, 3, 3, 2, 44, 1, -18, -20, -11, 21, 17, -23, -37, 13, 36, 34, -10, -2, -35, -26, -34, -39, 5, -15, 2, -19, 40, -4, -41, 15, -17, 0, -31, -13, -2, -15, 29, -37, -31, -30, 40, 24, 5, -5, 23, -33, 10, 13, 12, 31, 20, 37, -18, 2, -7, -20, -65, 1, 24, -29, -42, 20, 48, -17, -10, -2, -27, -34, -12, 28, -14, 39, 24, -31, -38, 33, 8, -6, -32, 9, -16, 29, -7, -16, -4, 22, 5, -54, -6, 32, -4, -39, -44, 22, 13, -15, 15, -34, 55, 21, 27, 20, 52, -36, -7, -27, 25, 7, 13, 8, 3, -6, -19, -25, -77, 43, -19, -24, 30, -66, 34, -23, 30, 32, -41, -26, -8, -25, -21, -29, -30, 12, 6, 34, -14, -28, 8, -35, 4, -37, -32, 15, -29, -46, 29, -31, -60, 16, 42, -24, 25, 67, 15, 42, 31, 54, 15, 29, 32, 21, -15, 15, 8, 24, 6, -27, -25, 32, -24, 23, 15, 2, -53, -24, 11, -35, -7, 83, 46, -34, -59, 42, -16, -46, -6, -22, -12, -42, -9, 26, -1, -25, 26, -19, -19, -31, 66, -48, -28, 18, -5, -9, -1, 51, -12, 5, 0, -60, -36, 17, -10, -15, 22, 38, -18, -12, 25, 1, -60, 18, 45, -20, -34, -70, -10, -10, 14, 45, 41, 20, 27, -18, -3, 31, 6, 2, 9, -76, -17, 8, -30, -20, -38, -37, 8, 2, 51, -5, 43, -18, 11, -11, -35, 0, -18, -7, -25, 8, 41, -44, -58, 13, 4, -29, 0, 31, 16, 28, -25, -16, -32, 20, 40, 49, 36, 21, -39, 64, -8, 19, 45, 3, 13, -56, 37, 13, -4, -33, 21, 0, -42, -12, -11, -11, -29, 25, 67, 4, -11, 13, -13, 2, 55, 33, -6, -31, -12, 43, 45, 50, 14, -11, -4, -16, -13, 24, 5, 33, 9, -25, -15, 23, 10, -18, 36, -5, 41, -7, -13, 36, 36, -1, -2, -46, -3, -25, 17, -13, -1, 10, 25, -61, -2, -33, -10, 9, -5, 24, 69, 4, -13, 16, -2, 28, 14, -3, -12, 0, 64, 31, -51, 7, -18, -7, 64, -10, 3, 10, 11, -52, 48, -26, -36, -4, -1, 5, -13, 19, 49, -7, 8, -28, -42, 28, -40, 49, 40, -18, 1, 44, 4, -13, 4, 53, -25, -34, -34, 22, -48, 5, -15, 1, 24, -22, -25, 46, -7, -16, -13, 16, -5, 23, 34, 22, -24, 23, 4, 67, -4, 27, -24, -22, -42, 3, -28, -48, 27, -65, -17, -26, -10, 3, 5, 8, 3, -37, 51, 18, -1, 4, 4, -14, 2, -6, -11, -18, 44, -22, -48, 10, -44, -9, -1, -12, -23, -1, 4, 24, 56, -8, -11, 13, 41, -33, 7, -15, 36, 15, -3, 13, -8, -28, -9, -47, -36, -34, -24, 20, 7, -2, -24, 12, 17, -17, 8, 26, 17, 4, -42, 42, 7, -8, 33, 12, 16, -40, 25, -6, -16, 2, -18, -6, -20, -12, -19, -18, -30, 1, 45, -7, 14, -24, -25, -58, -7, -50, 28, -52, 22, 31, 21, 2, -52, -29, 54, 21, 6, -11, 2, 6, 23, 3, -21, 15, -23, -10, -22, 19, -45, -23, 15, -19, 1, 9, 31, 12, 2, 8, -3, 21, 9, 1, -28, 21, -12, 10, 39, -20, 7, -2, 11, -37, -36, -32, 27, 27, 27, -32, -47, 2, -28, 3, -50, 11, 17, -9, 12, -8, -4, 53, -29, -5, 2, 24, -51, -14, 18, 36, 8, -14, -19, 15, -28, 4, 0, -15, -8, 50, -47, 30, -7, 22, -47, -1, 34, 35, -50, 38, 1, -6, 4, -43, 7, 0, 10, -18, 19, -17, 25, 12, 38, 15, -14, -7, 5, 9, 0, -17, -4, -16, -54, -22, -22, -19, -46, -22, -27, 16, 49, -52, 13, -34, -13, 22, 13, 16, 21, 23, 6, 43, -13, 27, -7, 23, -8, 21, 7, -6, -23, -15, -48, 7, 24, -1, 12, -3, -66, -33, -48, 10, 14, -2, 35, 39, -22, 12, -38, -66, -58, -2, -42, -25, -11, -5, 14, 23, 57, -41, 1, -4, 6, 16, -58, 5, 10, -16, -44, 13, 30, 11, 12, -10, -53, 24, 0, -14, -34, -4, 34, 0, 3, 15, -42, 21, -5, 4, -30, -3, 27, -12, 45, 8, -35, 12, -12, 44, -34, -63, 22, 27, 8, -2, -30, 57, 6, -17, -62, -7, 26, -4, 39, 2, -1, 38, 3, 77, -1, 27, 2, -31, -9, 41, -14, 33, -7, 49, 12, 14, -28, -22, 40, -13, -45, 28, 0, -22, 39, -24, -16, 28, 16, 12, -17, 36, -1, 13, 6, 32, 13, -10, 27, -37, 1, -13, 16, -23, 44, 14, 63, 20, 5, 8, 15, 8, 26, -19, -31, -41, -33, -50, -13, -8, -5, 10, 40, 10, -1, -17, -21, -42, 21, 0, -9, 3, 3, 1, -45, 2, 48, 17, 15, 3, -31, 3, 3, -48, -13, 18, -13, 21, 9, 41, -1, 2, -22, 25, -19, -31, 39, 46, -20, 60, -10, -30, -22, 24, -25, -31, -11, -11, 48, -87, 42, -2, 8, 38, 51, 30, -14, -6, 4, 13, -22, 44, -4, 15, 24, 8, 27, -58, -5, 28, 46, -32, -28, -39, 11, 25, 20, 16, -4, -36, 25, -4, 28, -3, 11, 46, 5, 8, 45, -40, 3, -27, -4, -15, -45, 4, -22, -13, 26, 9, -34, 20, 32, -15, -1, -21, -27, -11, 16, -43, -30, 6, 27, 24, 63, 66, 25, -8, 32, -17, -26, 11, 40, 21, -2, -33, -30, -10, 23, -2, -20, -30, 24, -13, -34, -29, -50, 34, -44, 9, 54, -19, 9, -17, -6, -29, 8, 30, -39, 26, 22, -29, 1, 20, -53, 44, -12, -16, -52, 29, 2, 8, 45, -22, 4, 8, -23, 28, -20, -38, 31, -26, -4, -49, 9, -53, -5, 2, -18, -9, -27, 25, 38, -26, 4, -54, -3, 46, 49, -40, -10, -9, -11, 26, 14, 26, 3, 44, -30, -7, 27, -6, -11, 27, 38, 29, 59, 30, -16, -14, 30, -6, -3, 50, -41, -35, 6, -6, -19, -21, -4, -6, 28, -1, 32, -7, -8, -23, -31, 28, -11, 0, -25, 1, -25, 68, 53, -12, 11, -14, -9, 18, -19, -8, 59, -2, 16, -9, -4, -8, -5, -5, 21, 15, -60, 80, 49, 23, -10, -63, 3, 34, 8, 7, -30, -16, 6, 12, -5, -17, 23, 12, 51, 57, 2, -30, -11, -13, 3, 30, 23, -42, 21, 1, -1, 25, -15, 5, 7, -4, -26, -52, -17, -5, 18, -13, -18, 51, 23, -16, -25, -47, 7, 0, -14, 9, 26, 6, 59, 25, -17, -21, -11, -21, 24, -10, -7, -5, 30, 30, -50, -27, 0, -13, -31, -10, -1, -8, -70, -35, 21, -2, -9, 10, 1, 37, -39, -26, -14, 12, 16, 26, 56, -26, 8, 14, -3, 17, 26, 49, 35, -38, -13, -2, -12, -6, -4, 4, -14, 34, 15, -47, -25, 25, 23, 0, -39, 17, 15, 18, 41, 29, -18, 22, -8, -34, 29, 21, 32, -18, 28, 29, -24, -29, -32, -21, 39, -19, -6, -67, -12, 10, -53, -14, 21, -21, 29, 6, 5, -12, 21, -11, 2, 46, -5, 59, -14, -33, 6, 33, -25, -2, -11, 28, 17, -23, 16, 22, 13, -19, -32, -12, 22, -59, -15, -29, 14, 22, 21, -2, 16, -18, -16, 44, 6, -25, -1, -13, -1, -17, -4, 6, -25, 2, -3, -16, 47, 5, 29, -18, -1, -17, 25, 1, -34, -5, -32, -37, 28, 24, 34, 1, 12, 26, -24, -52, -1, -17, 43, -19, 23, -17, 41, 30, 67, 55, -13, -30, -19, -14, -32, -18, -13, -41, 42, -25, 15, -2, 17, -25, -38, -38, -17, -41, -7, -3, 15, 2, 6, -31, 47, -5, -13, 45, -2, -20, -16, 5, 7, -6, 1, -50, 23, -1, 5, 25, 13, -11, 20, -53, -9, 31, -30, -69, -23, 0, -19, 9, -35, 4, -31}

#define TENSOR_GRU_GRU_CELL_RECURRENT_KERNEL_0_DEC_BITS {8}

#define TENSOR_GRU_GRU_CELL_BIAS_0 {26, 10, 1, 44, -25, 1, 1, 15, 30, 73, -23, 43, 10, -3, 11, 2, 25, 5, 87, 4, -14, -30, -40, -53, 44, 66, -39, 7, -6, 20, -29, 20, 1, -6, 11, 27, -4, 35, 8, 24, 24, 33, -4, -8, 24, -14, -26, -9, 39, -28, -20, 11, -11, 43, -23, 8, 13, -17, 3, 20, 5, -24, -11, -22, 20, -3, 11, -26, -2, 11, -4, -5, -7, -25, 8, -3, 14, -5, -2, -8, -8, -2, -8, -5, 1, -1, -8, 10, -12, -8, 5, 5, 5, 2, 7, -8, 26, 10, 1, 44, -25, 1, 1, 15, 30, 73, -23, 43, 10, -3, 11, 2, 25, 5, 87, 4, -14, -30, -40, -53, 44, 66, -39, 7, -6, 20, -29, 20, 1, -6, 11, 27, -4, 35, 8, 24, 24, 33, -4, -8, 24, -14, -26, -9, 39, -28, -20, 11, -11, 43, -23, 8, 13, -17, 3, 20, 5, -24, -11, -22, 20, -6, 11, -26, -1, 11, -4, -5, -8, -25, 9, -3, 14, -5, -2, -7, -8, 0, -8, -5, 2, -1, -8, 10, -13, -8, 5, 5, 5, 2, 7, -8}

#define TENSOR_GRU_GRU_CELL_BIAS_0_DEC_BITS {10}

#define GRU_BIAS_LSHIFT {5}

#define GRU_OUTPUT_RSHIFT {8}

#define TENSOR_GRU_1_GRU_CELL_1_KERNEL_0 {64, 10, 19, -44, -16, 25, -43, -74, 21, 48, -38, 53, 13, -7, -46, -2, 3, 32, -51, -54, 46, -16, -77, 22, -7, -64, 29, -54, -5, 7, -47, -70, -29, -7, -6, 52, 40, -38, 18, 43, 71, 14, -59, -47, 29, 73, -72, -58, 8, -8, 13, 74, -6, -30, 78, 74, 0, 39, -2, 49, 1, -26, 35, -11, 19, 40, -52, -107, 53, -38, -58, -55, -10, 57, 31, -8, 57, -6, 12, -52, -1, 7, -73, -52, -38, -7, -44, 26, 31, -25, 30, 31, -28, 23, 65, 52, -31, -11, 72, 54, -40, -4, 4, -2, 15, 52, 55, -8, 43, -41, 40, -17, 58, 10, -7, -33, 6, -47, -44, -31, 3, 86, 30, 22, 11, -4, -1, 33, -42, 57, -54, -18, 7, 26, -21, -11, 39, 46, 32, 38, 82, 37, 19, 67, 12, -48, -52, -47, -11, 47, -24, 42, 15, -7, -13, -29, -52, -37, -45, -4, 26, -11, 81, -3, -6, 66, 84, -38, 77, 22, -45, -30, 60, 48, 31, -3, 12, -59, 26, -2, -44, -15, 20, -51, 25, -1, -3, -9, -17, 54, 32, 54, 13, 27, -40, -63, 5, 21, -41, 12, 38, 80, -63, -17, 17, -35, -37, 48, -36, -76, -53, -19, -38, -25, -33, 14, 41, 89, 30, -8, -6, -21, 32, -28, -58, 30, 53, 47, -61, 63, 108, 65, -20, -50, 67, 47, -33, -62, 63, -79, -6, 26, 24, -68, 7, 3, -33, -31, -24, 23, 55, 9, 44, -5, 40, -21, -51, 59, 11, -2, 48, -11, -54, -56, 45, 51, 9, 25, 25, 82, -2, -27, 32, 35, 40, -97, 78, -7, -63, -7, 23, -18, 20, -54, -90, -30, -5, -51, 2, -30, 5, 77, 16, -5, 2, 81, -20, 34, 7, 9, 33, 40, -68, 17, -67, 62, 7, 85, -46, 23, -6, 19, -63, 0, 20, 28, 4, 67, 73, 20, -78, -36, -13, -86, -15, 12, -31, 5, 7, 45, -79, 35, 94, 76, 11, -50, -39, 1, 11, -25, 18, 6, -44, -52, 37, -55, -2, 27, -16, -45, 97, 56, 14, -8, -61, 47, -31, -31, 31, 78, -60, -12, -68, 68, 11, -5, 31, -16, -2, -25, -60, 5, -43, 41, -11, 24, -35, 21, -22, 7, -8, 41, -4, 22, 29, 71, 44, -52, -24, -25, -32, 17, 16, 7, 17, -2, 33, -19, 28, 37, -34, 16, -9, -57, -20, -39, -22, -27, 10, -42, 42, 36, 33, -19, -90, 8, -55, 37, -37, 66, -45, -16, 83, 63, 37, 61, -45, -7, -1, 62, -50, 41, -4, 40, -20, 28, 66, -62, 64, -12, 22, 37, -46, 44, 35, -27, 0, 31, 28, -1, 59, -21, -29, 28, -79, -15, -17, 25, -7, 3, 60, 26, -56, -52, -37, 39, 0, -36, 6, -30, -65, -29, -18, -61, 53, 25, -47, 29, 37, -42, -75, -104, -12, 100, 15, -35, 62, 36, -33, 59, -28, 54, 58, -25, -13, -33, -27, -56, 53, 73, -34, 29, 17, 45, 0, -3, 10, 79, 38, 36, -14, 16, -6, -3, -57, 15, 54, -31, -9, -68, 43, 67, 9, 30, -32, 17, 5, 78, -24, 52, 15, 29, 36, 36, 44, 28, -35, 29, -24, -27, 9, -7, -64, 29, -66, -67, 30, 24, -40, 11, 15, -17, 70, 88, 12, -12, -23, -15, 44, -16, -27, -30, 28, 65, -56, -71, -39, -26, -27, 61, -39, 38, -20, 78, 80, 18, 37, -59, -75, -27, -25, 52, -46, -25, 63, 54, -6, -88, -17, -11, -103, 17, -26, -59, -43, 31, -17, -15, 38, 9, 67, 2, 59, -8, 64, 53, -9, 7, -87, -89, 75, 56, 10, 21, 7, -14, -37, -31, 27, 38, -67, 39, -67, 52, 54, 25, -23, -64, 50, 15, 8, -11, 49, 61, -6, -49, -42, 10, -25, -17, -31, 39, 43, -18, 58, -3, 0, -43, -9, 51, 10, 19, 38, 51, 44, -10, 10, 83, -2, 23, 6, -28, -22, 9, -44, 17, -51, -45, -8, -52, -14, -19, 31, -64, -25, 30, -30, -46, 64, 42, 44, 40, 14, 2, 70, 40, -32, 1, -72, -12, 45, 33, 46, 16, 4, 15, 1, 43, -11, 46, -9, 4, -59, -8, -40, -13, -1, 17, 7, -29, -26, 2, 77, 103, -75, -80, 49, 37, 6, 38, -81, -93, 44, -24, -15, 1, -41, -6, 20, -22, 51, 2, 30, -34, 48, 46, 29, -16, 33, 19, -81, -36, -1, 10, 21, 1, -31, 77, -9, 38, -27, 36, 15, 61, -3, -100, 22, -8, -11, -28, 60, 6, 26, 11, 66, 34, 24, 52, -1, -1, -3, -3, -26, 32, 24, -7, 55, 23, -32, 8, 9, 26, 8, -7, -58, -36, -41, -1, -15, -34, 16, -17, -18, -53, 25, 12, -70, -32, -27, -60, -25, -24, 90, 38, -25, -69, 67, 27, 84, -7, -16, 4, 7, 59, 48, -3, 9, -46, -6, 6, -21, -39, 35, 48, -14, 51, 33, -9, 25, 39, 2, -3, 67, -9, -26, 20, -50, -5, -65, -51, -43, 46, 53, 14, 41, 22, 5, -69, 44, 6, 10, -34, 21, -44, -68, -6, -3, 11, 50, -25, 39, 45, 46, 19, -39, -5, 37, -45, -21, -23, 32, 88, 31, -28, 59, -21, -1, 62, 1, -9, -82, -11, 10, 8, 39, -49, -48, -4, 78, 33, 34, -7, 31, -7, -30, 88, -1, 66, -33, -6, 58, 17, -25, -20, -3, 110, -28, 39, -14, 77, 39, -22, -9, -42, 25, -79, -54, 42, -12, -65, -41, -49, -32, -14, 9, -33, 7, -50, 1, 41, 26, 107, -35, -41, 31, -18, 76, 86, -50, -32, 27, 37, -62, -73, -20, 13, -27, 5, 62, 16, 73, 69, -14, 68, 1, -51, -18, 80, -65, -57, -20, -4, -13, -40, -4, 18, -75, 9, 32, 9, -24, 64, 100, -12, 9, -51, -67, -29, 9, -31, -18, -2, -66, -11, 20, -60, -13, 31, 5, -42, -26, 85, -93, -100, 72, 107, -21, -47, 43, 60, -7, 36, 52, 33, 54, 18, 25, 30, 38, -6, -47, 57, -46, -42, -44, -40, -7, 28, 55, 80, 78, 87, -17, -13, -19, -46, 1, 34, 0, 2, -26, 24, 1, 14, 49, 0, 44, -28, 21, 18, -1, 4, -4, 63, -6, -58, -43, 58, -24, -26, 19, 23, 16, 51, 7, 76, 44, -19, -49, -17, 14, -21, -10, -3, -11, -101, 4, -37, -33, -9, 42, 59, 11, -32, 27, 2, -2, 53, -16, 18, -73, 18, -23, -36, -34, -5, 1, -52, 68, -2, -44, 38, 45, -21, -37, -36, 43, -74, 20, 63, 26, 30, 11, 52, -11, -18, 59, 46, -25, 11, 36, 53, -24, -65, -17, -61, -37, 20, -62, 21, 13, 15, 9, -51, 66, 21, 16, -55, 7, -23, -50, -11, 17, 11, -58, 24, -31, 26, 26, 52, 36, -10, -50, 61, -4, -36, -60, -29, -56, -15, 14, -49, -10, -30, 16, -24, -34, -57, -11, -25, 10, -30, 35, 5, -64, -6, 73, -13, 25, -51, 48, 11, -41, -60, -6, -41, -37, 47, -32, 16, 10, -22, -19, 51, 22, -9, -76, -35, 18, 75, 27, -38, -68, 6, -17, -53, 19, -7, 3, -52, -50, -52, -4, -15, -112, 13, 50, 4, -11, -54, -51, 48, -67, 30, 64, -94, 14, 61, 30, -6, -21, 33, -54, 72, 17, -25, 45, -17, 36, 39, -35, 18, 7, 35, 17, 68, -40, 41, 79, 14, 5, -15, -50, -64, 46, 11, -53, -4, -9, 101, 20, 1, -11, 12, 29, 1, -16, -37, 17, -15, -117, -1, -36, -6, 37, -23, 33, 34, -18, -57, 12, 42, -26, -62, 13, -46, 26, -29, -19, -14, 35, 14, -31, -30, 18, -34, 45, 49, -19, -36, -43, 21, -53, -66, 23, 20, -33, 19, 36, 12, 5, -24, 47, -2, -38, -7, 29, 7, -39, 48, 66, 15, -3, -7, -31, -58, -37, -16, 20, 36, -40, -24, -58, 48, -69, -71, -14, 5, -28, -46, 44, 2, 6, -55, 38, -38, 58, -21, 0, 36, -34, 15, -38, -39, 59, -3, 65, -37, 33, -46, -4, -17, 49, 13, 50, -24, 45, 38, -48, 22, 20, -57, -37, 47, 31, 39, -9, 61, -1, 1, 54, -7, 75, 76, -58, -4, 6, 59, 31, 13, 7, 59, 39, 7, -32, -44, 9, -56, -56, -27, -16, -56, -4, 61, -23, -11, 3, -16, 7, -75, 40, -28, 37, -36, -44, -28, 24, -17, 28, 34, 0, 10, 27, 33, 16, 8, -2, -19, -36, 29, -76, 23, -8, 51, 40, 10, -30, -15, 49, -8, 7, -32, -29, -30, 15, -38, 33, 30, 68, 10, -42, 20, 50, -43, -34, -100, 31, -11, -39, 16, 51, -21, -26, 24, 13, 59, 12, -15, 54, 12, 24, 9, 16, 60, -29, -42, 15, -19, -52, 10, -52, 12, -25, 14, -44, -29, -49, -39, 12, -16, -1, 47, -15, 39, -43, 52, 11, -66, 1, 8, -48, 59, -16, 15, 50, 59, 7, -24, 0, -45, -33, 20, -5, -7, -64, -4, 12, 6, 82, 2, -77, 12, 48, 27, -2, 30, -21, 3, 16, -39, 17, -4, 31, -59, -23, -18, 21, -31, 50, 30, 10, -57, -27, 61, -63, -42, 17, -9, -38, -51, -9, 16, 1, -42, -18, -9, 0, 60, 61, -19, 25, -71, -8, 21, -42, -58, -52, -60, 38, 1, 33, -3, -51, -26, -24, 51, -37, 62, 46, -27, -3, -36, -32, 58, 42, 21, -39, 44, -26, 3, 1, 27, -36, 50, -78, -69, -33, -11, 5, 23, 35, -49, 50, 31, 21, 72, 29, -11, -19, -20, 38, -14, 32, 28, 54, 59, -40, 27, -11, 16, -53, 18, -47, -14, 46, 67, 5, -21, -28, 73, 48, 9, 43, 41, 32, 27, 39, 5, 21, -4, -39, 38, 53, 62, -3, -54, -50, 10, -10, 30, 3, -21, 20, -37, -99, 20, -27, -1, -30, 29, -21, -56, -43, -26, -18, -15, -44, -10, 15, 7, -20, -10, 65, -3, 23, 24, -1, -27, 55, -26, -21, 16, 39, -32, -13, 45, -35, -34, 39, -28, 21, 13, -36, 12, 10, -10, 14, -12, 3, -17, 35, 56, -45, 52, 0, 48, 54, -22, -37, -24, -53, 56, 19, 38, -7, -7, 8, -30, -52, -20, -31, -9, -58, -57, 1, 5, -74, 56, -32, -43, 16, 8, 62, 33, 35, -56, 62, -9, 7, 12, -38, 25, -54, 61, 17, -25, 28, 7, -35, 53, -49, -28, -35, -15, -14, 12, 21, 44, 34, 59, 73, -1, 18, -3, 11, 37, 46, -10, -16, -28, 34, 12, 33, 0, 67, 14, 2, 22, -6, -51, -45, 23, -101, -15, 11, -18, 11, 5, -12, -6, 21, 47, 3, -13, -38, -36, 39, -16, 39, -18, -16, 19, -8, 54, -38, -6, 40, -13, -16, 40, 47, -7, -2, 37, -2, 55, -3, 44, -21, 10, -36, 42, -59, 28, 9, 52, 5, 66, -9, 53, 7, -20, 71, -33, -38, 41, -37, -50, 5, 1, 3, 8, -5, -15, -25, 38, -34, -28, 5, -38, 87, 21, 38, 5, -12, -72, -47, -51, 39, 12, -42, 19, 14, -35, 29, 37, 9, 47, 43, 15, 23, 41, -25, -41, -16, 43, 15, -31, -63, 69, 2, -5, 64, 40, 7, -2, -8, 21, 38, 41, -54, -59, -27, -44, -60, -5, -25, -16, 60, -34, -33, 10, 7, 45, 5, 37, 2, 34, -29, -49, -44, -42, -57, -52, -35, 42, 43, 35, -28, -54, -41, -18, 40, 47, 20, -39, -54, 25, 21, 13, 39, 41, 11, -15, -55, 19, 50, -38, 25, -39, 3, 57, -70, 1, 6, -63, 4, 41, 20, 39, -7, -59, -4, 46, 13, -28, 29, -23, 65, 30, -18, -2, 39, -6, -55, 24, 46, 54, -77, 34, -63, -37, -10, 55, -89, -64, 36, 35, -14, 11, -14, -7, -14, 78, 49, 40, 8, 16, 21, -49, -72, -18, -20, 25, 15, -8, 27, 26, 25, 3, -32, 76, -4, 0, -12, -29, -50, -14, -28, 3, -46, 0, -33, 20, 8, 23, 21, -25, 52, -9, -63, 2, 31, -26, -78, -28, 1, 23, 34, -35, 12, 55, 4, -57, -22, -33, -23, -32, -10, 14, -8, 3, -30, 45, -43, -51, -14, 19, -4, 32, 51, 7, -3, 4, 26, 21, 17, -18, -16, -3, -34, -11, 20, 0, -30, -38, -49, -39, 26, 46, -38, -44, -15, 14, -49, -30, 53, 14, 58, 22, 23, 25, -36, 24, -37, -7, 59, 44, -42, -15, -45, 41, -23, -18, 38, 19, -37, 34, 38, -27, -48, -4, 31, 47, 21, 26, 22, -33, -6, -57, -59, 15, -7, -55, 37, -20, 37, 24, 46, -20, -32, 51, 2, -63, -12, -12, 42, -49, -56, 37, 1, 9, 49, -54, -4, -19, 11, -7, 64, -25, 6, -5, -52, 15, -32, -9, -71, 45, -18, -37, 42, -27, -13, -45, 18, 1, -25, -2, -18, 26, 30, 13, -36, 6, 9, -34, -69, -4, -40, 12, -9, 14, -19, -68, 33, 9, -66, 31, -52, -43, 59, -30, 46, -14, -45, -34, 0, -18, -7, 24, -28, 39, -8, 11, -19, 31, -57, -5, -27, 48, 59, -42, 15, -58, 2, 23, 52, 36, -9, 9, 30, -34, -29, -21, -41, -32, -17, 12, 50, -50, -21, 6, -17, 14, -3, 27, -6, -15, -58, -55, -14, 4, -24, -29, 65, 39, -54, 57, -57, 11, 22, 33, 17, 26, -36, -8, -41, 32, 10, -13, 31, 6, -45, -4, 7, -20, 18, 26, -44, 55, 54, -42, -49, 57, 46, -13, 21, 1, 28, -4, -43, -17, -36, 24, -16, -66, 46, 35, -1, -3, 2, -5, -11, -49, 12, 28, 43, -28, 2, 39, 31, -30, 36, 14, 8, 51, -41, -31, -21, -19, 56, 32, 51, 44, -73, -52, -18, -44, 27, 62, 9, 19, 18, 8, -3, -36, 28, -49, 30, -40, -27, -39, 8, -32, -43, -55, 19, 49, 30, -63, 43, -28, 30, 14, -4, -33, 43, 5, -27, -33, 7, 8, -45, -21, -46, 42, 41, -24, 48, -38, -2, 13, -6, 42, -4, 5, 0, -42, -22, 48, 7, -10, 50, 49, -35, -14, -53, 40, 51, 41, -31, -38, -19, -22, -48, 2, 18, 32, -23, -6, 51, -14, 7, 38, -19, 34, 57, 22, 42, 57, -20, 15, -13, -25, -5, 65, -50, -64, 24, -22, 56, -29, -1, -25, 13, 28, -10, 20, 30, -3, 29, -50, -19, -5, 34, -24, 15, -16, -19, 50, 44, 56, -1, -19, -22, -21, -2, 18, 11, 44, 35, -62, 42, 0, -2, -40, 1, 56, -38, -39, -59, -13, -48, 0, 50, -25, 4, -57, -50, 17, -33, -16, -70, 17, 35, -16, -62, -40, -35, 9, 57, 30, -5, -5, 20, 3, -13, -57, -1, 28, -41, -35, 52, 47, -23, -45, 9, 30, 15, 2, 45, 20, -27, 27, 9, 39, -36, -9, -2, 30, -21, -17, 26, -23, -32, -35, 33, 9, 35, 14, -71, 12, -42, -46, -39, -58, 27, -16, 15, -12, -4, 33, -34, 51, 38, 56, 53, 14, -23, -36, -26, 36, -23, -36, 10, 8, 14, -26, -4, 4, 16, 37, 30, 36, -64, -11, 51, -51, -56, -23, 31, 32, -30, 38, 20, -16, -25, -30, -23, -26, 33, 44, 1, -12, 22, -28, 53, 34, 45, -42, 57, -11, -61, -33, 34, 3, 18, -38, 30, -28, -16, 24, 0, -33, -15, -48, 17, 6, -31, -14, -27, -60, 47, 17, 40, -8, 8, 38, 55, 8, -19, -31, -28, -5, -8, -37, -25, 34, 25, 51, -24, -10, 33, 0, -39, 19, -37, -26, -39, 2, -15, 38, 21, -26, -7, 21, -42, -50, -62, -41, -22, -22, -40, 0, 13, 31, -42, 28, -27, -22, 58, 30, -51, -12, 38, 51, -8, 45, -8, -47, 43, 14, -20, -15, -31, -42, -68, -15, 4, 40, -18, 46, 12, 15, -37, 31, 44, -13, -29, -3, 28, 43, -57, -30, 44, 45, 57, -69, 35, 8, -49, 15, 46, 9, -62, 19, -60, 10, 53, 48, -17, 17, 40, -59, -61, 16, -39, 43, 51, -15, 53, -16, -26, -12, 52, 31, 30, -15, 43, 42, -7, -46, -37, 47, -52, -12, 62, 34, -60, -24, -30, -22, -46, 6, -29, -64, -55, -10, -15, -45, 52, -19, -50, -64, 3, -19, -35, -14, 40, -3, 4, 28, 12, -2, 36, -19, -12, 23, -6, -26, -45, -63, 43, -10, -57, -46, 42, 20, -12, 47, 19, 44, -10, -6, 40, -6, -28, 5, 26, -50, -36, -48, 21, 29, -37, -36, 5, 29, -21, 2, -41, -40, -4, 11, -6, 59, 46, 61, 52, 12, -41, 14, 20, -4, -51, 9, -28, 10, -3, -6, -26, -60, 48, 53, -16, 18, 17, -44, -39, 9, -9, 6, -19, 40, 30, 7, 61, 37, 61, 58, 15, -46, 62, -14, 39, -63, 55, 71, -3, 47, 27, 16, -19, 14, -13, -39, 21, -49, 1, -33, 9, -46, -25, 16, 34, -37, 33, -40, 17, 0, -1, 26, 58, 52, 0, 12, 61, -48, -17, -36, 41, -51, 34, 43, -50, -25, -2, 24, 37, -17, 8, -33, -31, -19, -52, -20, 10, -15, 53, -44, 14, 44, 2, 6, -19, 40, -17, 8, -20, 62, 42, -51, 14, -27, -20, 6, 13, -37, 48, -67, -46, -22, 23, -13, 10, 54, -31, -7, 41, -48, -61, -29, -31, -32, 0, -18, 13, -34, 12, 4, -64, 60, 64, -5, -27, 5, 19, -35, -18, -37, -20, 19, -48, -40, 32, 40, -13, 29, -30, 49, 39, -14, 2, -34, 21, -9, -50, 47, 42, -19, -14, -9, -42, -39, -44, 61, -50, 37, -15, -17, 53, -17, -25, -32, 42, 16, -31, -17, -14, -29, -12, 18, -26, -52, 38, -8, -43, -44, 17, -3, 4, 13, -35, 34, 8, -59, -55, -6, 58, 0, -28, -32, 55, 41, -7, -43, -48, 36, -58, -8, 53, -8, -18, -28, 21, -18, -45, -39, 4, -22, 7, 17, 25, 44, 55, -55, -54, -25, 3, 3, -11, -26, 14, 42, -56, -31, -7, -10, -9, -4, 0, 15, -24, -19, 41, 28, 3, -3, -60, 30, 49, 11, 23, -29, 3, 15, 41, -17, -31, 51, 17, -60, -39, -34, 29, 26, 63, -26, -38, -1, 33, -6, -59, -34, 24, 25, 2, -6, 20, 47, -27, 62, -65, 63, -12, 54, 44, -55, -27, 67, 37, -51, -16, 35, -38, 39, -32, 25, -25, -37, -51, 45}

#define TENSOR_GRU_1_GRU_CELL_1_KERNEL_0_DEC_BITS {8}

#define TENSOR_GRU_1_GRU_CELL_1_RECURRENT_KERNEL_0 {-7, -12, -12, 30, 1, -27, -19, -5, 6, 72, 8, -30, 31, 46, 44, -4, 49, -54, 34, 0, -9, 8, 26, 10, 34, -14, -7, 20, 29, -13, 32, 28, 39, 10, -2, -6, -21, -10, 7, -42, 18, 2, -67, -56, 52, 11, -23, -23, -41, -20, 30, 9, -11, -38, 18, -19, 32, -30, -20, -26, -9, -18, -34, -33, 8, 34, 2, -1, 39, 6, 9, -5, 27, -20, 20, -29, 4, -27, 7, 13, -15, 34, -44, -61, -53, -21, 5, 16, -50, -14, -41, -24, -62, -12, 41, 18, 24, 7, -20, 18, -20, 34, -12, -42, 0, 83, 26, -73, -50, 40, -69, -10, 34, -16, -17, -11, 13, -32, -61, -5, -11, 20, 44, -37, 21, 77, -19, -44, 5, -29, -26, -34, -12, -17, -11, -42, -18, 10, 27, -3, 41, 34, -39, 47, -21, -14, 16, -33, -40, -4, 38, 7, -18, 35, 20, 8, 19, 57, 26, 62, 16, -11, -5, -38, 14, -36, 9, -7, 32, 54, -38, -54, 0, -7, -65, -33, -36, -81, 19, -6, -62, -29, -15, 31, -28, -27, -28, 74, 18, -26, -34, -11, -61, 11, -12, -49, 8, 17, -6, 9, -20, -66, -4, -37, 6, -7, 1, 20, -9, -29, -32, 9, -6, 26, -3, -33, -14, -20, -11, -1, 20, -17, -11, -1, 53, 40, -37, 33, 21, 44, -78, 15, 16, 68, -17, -11, -19, 40, -12, -29, 25, 58, -41, -49, -17, 10, -5, -74, 38, 12, 23, -23, 14, 23, -2, -32, -57, -21, 18, -72, 76, -60, -28, -41, 49, 41, 29, 9, 45, 66, -37, -11, -51, -19, -51, 22, -19, -45, -4, 29, -21, -24, 30, 59, 22, 17, -17, 21, -19, 12, -10, -24, 24, 22, 11, -54, 104, 6, -44, -43, 28, 69, -44, 5, -4, -16, 14, 19, -30, -98, -32, 24, -6, -12, -10, -9, 50, 14, -32, -62, 33, 8, -48, -12, -18, -23, 17, -23, -66, -47, -61, 41, -28, 18, 5, 76, -61, -15, -75, 14, 37, -12, -7, -42, -31, -62, -51, -27, 25, -22, 20, -25, 123, 30, -5, -36, 67, 53, 29, -4, -46, -22, -55, -16, -17, -12, -9, -76, 27, 26, -42, -24, -10, 11, -12, -55, 71, -8, -45, -34, -16, 28, -38, 22, 26, 50, -50, -44, 25, -46, -37, 16, -4, -22, -1, -54, -8, 3, 23, -13, 45, 1, 65, 11, -59, -1, -39, 5, 0, -71, -68, 19, 42, -40, 43, 1, -16, 19, 39, 86, 35, -51, -10, 5, -45, -56, -20, -8, 22, -14, 29, 19, -7, -33, -39, 39, -53, -23, 0, -16, 48, 18, -19, -41, -14, 4, 33, 14, -22, -68, 81, 44, 2, -40, 34, 17, 16, 79, 12, 37, -16, 12, 7, -1, 37, 23, 26, -7, -49, 26, -45, 28, 17, 14, 40, 27, -4, -10, 10, 8, -28, 42, -26, 18, 26, -14, -47, 24, 20, 25, 2, 52, 9, -7, -41, 3, 1, -28, 11, 54, -29, 6, -36, -5, -42, -28, 52, -5, 14, -13, -15, 0, -37, 43, -16, -17, 18, -43, -20, -61, 17, 19, -3, -6, 34, 36, 45, -60, -19, -33, -22, -13, -57, -4, -23, 3, 24, -26, 5, -12, -34, 47, -39, -25, -44, -18, -36, -10, -29, -21, -27, -15, 63, -11, -30, -33, -15, 3, 6, 8, -18, -57, -16, -14, -17, -28, -67, 10, 1, 33, -54, -58, -17, 29, -38, 4, 1, -47, 26, -34, 10, -68, 30, -12, 17, 55, -46, -51, 77, -46, 11, 5, -13, 37, 13, 11, -3, -10, -20, -20, -24, -28, 0, -25, -12, -27, 27, -1, 33, 3, -60, -13, -68, 17, 52, -19, 23, 47, 5, 7, 60, 8, 38, -40, -11, 10, 14, -5, -38, 33, 24, 56, -25, -11, -7, -30, 21, -19, -15, -44, 21, -40, 1, 51, -21, -12, -3, -4, 2, 28, -32, 4, 41, -4, -65, -32, -15, -28, -28, -11, -62, -58, -15, 8, 12, 33, 38, 21, 4, -12, 31, 48, 9, 17, -41, 9, 45, -17, 21, -4, 43, -30, -3, -82, 21, 6, -71, 12, 41, -39, 9, 11, 9, -10, 21, 51, 2, -18, -56, -55, -1, 21, -11, -35, 21, 11, 11, 35, -4, 18, -12, -9, -69, 2, 8, -3, -6, -42, 18, 26, 22, -16, -26, 8, -47, -24, -15, -25, -20, 20, -44, -44, -22, -11, 34, -38, 19, 29, 40, 46, 24, -5, -57, -42, 63, 13, -37, -35, 7, 44, -11, -8, -9, 5, -10, 1, 5, 73, -62, 9, 24, 33, -27, -35, 3, 18, -28, -57, -23, -25, -9, 23, -27, -45, -4, -8, -42, 71, -37, -11, 43, 31, 35, -9, 89, 3, 46, -14, 6, -20, -60, 50, -20, 42, 6, 42, 20, -22, 68, -19, 21, 34, 30, -38, 30, 43, -17, -70, -13, 3, 19, -32, 7, 36, -24, -42, -69, 0, 73, -13, -17, -2, -3, 27, 73, -31, -66, -6, 34, -52, -13, -39, -37, 32, -6, -22, 44, 22, -14, -21, 26, 15, 78, 10, -22, 6, -19, 30, 54, -21, 16, -19, -53, -30, -34, -38, 19, -31, 66, -37, -26, -29, -54, 18, 63, 23, -34, -18, 16, 43, 38, -49, -27, 11, 16, -54, 30, -25, -21, -49, -60, 17, -19, -29, 6, 14, -54, -44, -14, -23, -13, -5, -25, 32, -66, -61, 55, 5, -2, -17, -22, -68, -55, -1, 34, -15, -12, -48, -21, 33, -31, 5, -28, 8, 52, 60, -27, -33, 9, -13, -18, -18, 21, -6, 23, 31, 52, 7, 11, -4, -12, 24, 24, 52, -17, -17, 9, -26, 1, -12, 0, -14, -74, -11, -38, -23, 47, -27, -82, 17, 41, -10, 2, 31, -72, -67, 54, -42, -17, -17, -40, -8, 39, 12, 57, 22, -15, -40, -19, -13, 15, 59, -15, -40, 106, 9, 1, 4, 40, -21, 35, -32, -37, -66, 12, 71, 34, 58, -34, -6, 19, -31, 40, 40, 19, -1, 43, 12, -19, -25, -7, -7, 13, 48, -19, -1, -21, 11, 8, 25, 49, -53, -23, 3, -20, -32, -60, -14, 3, -29, 48, 11, -16, -23, -64, -19, 68, -26, -55, 15, 7, 35, 6, -8, 28, 69, 16, -45, 12, 8, 19, 57, -84, 5, -67, 6, -49, 30, 33, -67, 77, 8, 3, -12, 17, 26, 19, 1, 32, 7, 31, -31, -57, 2, 88, -39, -58, 3, 23, -7, -12, 16, -17, 41, 54, -62, 1, -28, 33, -32, -49, 26, 4, -9, 1, 48, 20, 36, 26, -37, -59, -24, 27, 1, -52, 28, -97, 1, 37, 35, -8, 25, 22, 4, -86, 1, -59, 23, -14, 16, 6, -42, -59, 42, -24, -4, 4, -12, -35, 38, -39, -19, -37, 8, 45, 2, -10, 21, 15, -37, -29, 53, 53, -38, 5, 25, 11, 42, -27, 19, 13, 17, -9, 41, 7, 4, 17, 39, 45, 24, 25, 8, -40, -25, 41, 0, -29, 34, 21, -5, -6, -26, 28, 13, 33, -4, -19, -28, -118, 16, -23, -67, -33, 36, -27, 39, -10, 28, 33, 22, 33, -12, -1, 4, 24, 14, 5, 18, -33, 3, -21, 15, 18, -11, -30, 16, 4, -56, -41, 19, -32, -31, 19, 5, -14, 37, 61, -3, -26, 24, -10, 25, -40, 24, -19, 14, 20, 47, 2, -11, 39, -4, 29, -20, -48, 11, 22, 12, 45, 17, -10, 9, -38, 11, -7, -24, -42, 11, -1, 13, -71, 17, -14, 8, 1, 9, -43, 29, 16, 2, -15, -14, 44, -3, 15, -12, 47, 0, -68, -12, 25, -20, -41, 59, 16, 27, -40, 22, 31, 2, -80, 20, 1, -19, 16, 40, 25, -18, 23, 69, 20, -37, 15, 6, -43, -32, 34, 10, -5, 7, -41, 2, 33, 48, 47, -16, 12, -48, 27, -45, 0, -6, -35, -66, -14, 46, -59, -29, 41, 53, 61, 28, -13, -5, 42, -9, 75, 42, -28, -25, -56, 24, 20, -64, 30, 107, 11, 0, -11, 11, 20, 53, 36, 10, 53, -4, 13, 34, 13, -19, -5, -80, -6, -14, -43, 41, -46, -79, 40, 21, -40, -50, -2, -42, 17, -27, -25, 4, -28, 9, 43, -37, 15, -28, -22, 20, -29, -19, 16, -28, 53, -11, -79, -41, 19, -6, -51, 43, 47, -14, 27, -1, -6, -36, -104, 78, -22, -66, 38, 38, -47, -44, 9, 17, 25, -39, 40, 66, 51, -12, -21, 76, 50, 29, 81, 22, 58, 9, -28, -92, 53, -16, -17, -19, 32, 7, 31, 47, -20, 38, 32, 94, 20, -54, -21, -26, -19, -5, -94, 9, -4, 1, 58, 51, 28, -3, 94, 8, 58, 44, -5, 81, -36, 30, -8, -2, -48, -65, 16, 39, 49, 2, 31, 16, -71, -43, 13, 4, 16, 37, 23, -16, 15, 37, -3, -9, 19, -13, -25, -12, -6, -3, -46, 24, -26, 4, 16, -23, -51, 24, -30, -78, 55, -20, -48, 0, 16, -11, -21, 4, -62, -13, -40, -106, -7, -56, -51, -1, -21, 20, -35, -6, 14, 14, 28, 36, -43, -35, 18, 43, 24, 36, 19, 15, 17, -2, 61, 45, 6, -3, 10, 21, -49, -49, 22, 0, -7, -36, -20, 14, 31, 52, 33, 16, 4, -56, 9, 3, 7, -37, 16, 19, 4, -23, 53, 18, 10, 35, -34, 14, -30, 11, -25, -28, 24, 30, 29, 26, 61, -10, 29, 3, 62, 9, -9, -55, -13, -32, -31, -61, -18, 31, -25, -6, -18, 13, 16, 16, -45, 1, 40, -17, -5, 20, -34, -65, 8, 35, -84, 8, 23, -7, -13, -19, -44, -4, 16, -8, -23, 60, -18, 10, -42, -19, -39, 23, 9, 64, 15, -7, -17, 20, 22, 8, 63, 24, 10, -7, -34, -36, 20, 69, 13, -5, -34, -38, -6, 13, 52, -11, 4, -9, -6, -5, 22, 31, -22, -29, -2, 40, 6, 0, -10, 11, 37, -26, 43, 16, -4, 20, -1, -14, -68, 16, 25, 33, 0, 14, -18, -27, -23, 13, 27, 23, 19, -27, 9, 18, -74, 36, 63, 2, 18, -55, 29, -41, 67, -2, 17, 20, 5, 1, 41, 0, -41, -32, -29, 23, 48, 74, -2, 42, 39, -16, 47, 15, -1, 30, 3, 25, -27, 47, -36, -13, -6, 13, -24, -43, 10, 9, 1, 11, -6, -30, -16, -38, -11, -9, -9, 18, -40, -17, -6, -38, -8, -4, 18, 6, -41, -35, -15, 16, 51, 20, 46, -9, -43, -49, 42, 31, -26, -24, -63, 7, 17, -15, 30, 22, -19, -27, -1, -28, 17, -1, -30, 37, -59, 16, -47, -81, 27, 11, 11, -21, 74, 1, -28, -59, -39, 31, -50, -49, 69, -14, -29, -11, -17, 96, -11, -10, 9, 9, -21, -8, 35, 59, 32, 23, 40, 29, -18, 0, -29, 37, 21, 25, 0, -44, 44, -3, 41, 18, 24, 16, 10, -8, 50, 33, -36, -2, -8, -24, 8, -1, -10, -28, 42, 6, 10, -49, 51, 29, -5, 35, 43, -66, 11, 6, -25, -20, -2, -81, 13, -17, 12, 24, -6, 8, -2, -50, -7, 8, 26, -11, -33, 22, 22, 51, -51, 18, 48, -28, -46, -31, -75, 24, 45, 30, -44, -18, -6, 33, -9, 33, -49, 27, 60, 62, -7, -11, -13, -46, -53, -45, -61, 12, -36, -9, 6, -54, -32, 28, 5, -9, 5, 7, -29, -18, -19, 58, -71, 6, -8, 43, 15, 8, 18, -23, -17, -15, 7, 62, 4, -54, 37, -7, -12, 5, 47, 31, -19, 0, 64, -34, 6, 64, 0, -26, 36, -1, -20, -35, 15, 15, -78, 38, -2, 22, 25, 40, -24, -14, 22, -6, 16, 29, -11, -58, 12, -34, -5, 18, -27, 46, 32, 45, 53, 60, -11, -64, 1, 31, -7, 12, 14, -25, -11, -26, 36, -7, 22, 73, 15, -11, 30, 31, -30, -3, -35, 5, -6, -12, 26, 45, -26, 12, -29, -46, 15, 7, -31, 5, 12, 37, 72, 37, -82, -27, 36, 0, -62, 0, -54, -19, -15, 13, 12, -28, -5, 56, -63, 13, -1, -46, -23, 49, -43, -3, 26, -13, -38, -44, 8, 57, -5, -20, -2, 27, -28, -16, 30, -24, 5, -69, 28, -16, -29, -50, 21, -27, -28, -1, 26, 54, -13, -42, 5, -1, -15, 2, 36, -13, 75, 9, 39, -9, 15, 10, 26, 15, -53, 18, 18, -13, 30, 46, -51, -73, -20, 7, 30, 2, -10, -14, 30, 13, 4, -6, -6, 9, -12, -13, -23, -42, 9, 20, -6, -23, 6, -9, 20, -36, 62, -20, -39, -7, 15, -27, -1, -49, 29, 40, -2, -39, -49, -1, -5, 2, 9, -42, -5, -10, -10, -48, -44, -30, -21, 10, -46, 23, -8, -2, 10, 28, 4, -29, -2, 37, 13, -45, 18, 34, 15, -54, 0, -6, -44, 17, 27, -11, -7, 18, 6, 7, -10, 25, 41, -40, 24, -17, -62, -14, -14, 28, 57, -22, -6, 32, 31, -32, -44, -20, 24, 1, 42, -61, -5, -4, -1, -8, -30, -25, 18, 2, 51, -10, -2, 2, -43, -4, 5, 0, 27, -70, -16, -63, 35, -16, -19, 7, -4, -51, 46, -5, 26, 18, -35, 3, -17, 14, 13, -48, -2, -8, 62, 42, 8, -5, -85, 5, -42, -18, -1, -4, 18, 34, -17, 53, 40, 38, 13, 37, -48, 25, -26, -32, -51, 28, 40, -5, -42, 30, -40, 1, 3, 18, 4, 3, 13, -27, -10, 25, 8, 58, 13, -33, -33, 6, 3, -25, -7, -5, -7, -2, 1, -20, -29, -4, -27, -32, -21, -16, -57, -9, -3, 2, 23, 43, 21, -35, 7, -21, -40, -26, -26, 0, 38, -35, -69, -25, -50, -78, 38, 1, 12, 1, -12, -15, 36, -13, 21, -11, 16, -20, -13, 21, 18, -29, -13, 1, -35, -56, 19, 1, -7, -83, -36, -56, 75, 5, 5, 70, 44, 28, -50, 33, 18, 0, -12, 61, -52, -33, 6, -41, 6, -33, 41, 24, 12, -31, 14, 29, 31, 27, 11, 47, -67, 0, 30, -29, 19, 16, -5, -50, -2, 26, 18, -12, -5, 29, -51, 19, -21, 34, -20, 12, -18, 43, 2, -12, -49, 31, 20, 45, 21, -11, -5, -14, 50, 6, 8, 24, -4, -22, -39, 24, -23, 31, 60, -20, -1, 23, 31, 12, -27, 2, -48, 11, 33, 30, -90, 22, 17, 31, -57, 46, -20, -27, -49, -14, -43, 0, -2, 4, 8, 45, -29, 50, -12, 11, 9, 22, -12, -30, -28, 37, -41, -9, -2, -9, -56, -4, 61, -51, -58, 0, 59, 24, 12, -52, 12, 48, -63, 42, 2, -4, 11, 23, 37, -18, -17, 40, 37, -19, -4, -13, 7, 18, -1, -37, -40, -33, 20, 27, 9, -10, 7, 24, 33, -31, 10, 14, 30, 12, 38, 37, 3, 48, -10, 37, -3, 1, -1, 30, -1, 38, 31, -83, -25, -28, 25, 54, 44, 42, -44, -34, -6, 8, 46, 16, 41, -12, -40, 26, 21, 46, 17, -2, 39, 25, 31, -9, 25, 27, 23, -19, -10, 34, -12, -43, -17, -1, 26, -15, 7, -28, 51, -67, -15, -3, 11, 11, -22, -54, -4, -73, 5, -3, -59, 49, 2, -16, -15, 24, 33, -30, 55, 15, 11, 9, -24, -28, 5, 28, -23, 4, 38, -7, -24, -36, -29, -10, 5, 37, 4, 56, 58, -72, -35, -71, 20, 17, -6, 32, 26, 2, -11, -28, 56, 19, -35, 32, 29, -13, 12, -12, 0, -54, 13, -16, 12, -61, -22, 6, 37, -13, 37, 35, -5, 98, 19, 37, 19, 19, 3, -35, -14, 56, -25, -12, 22, 31, 4, -13, -11, 26, 9, 14, 9, -31, 13, 9, -38, -11, -42, 22, -16, 12, -35, 1, -36, -27, 21, -5, -7, 16, -36, 36, -33, 6, 21, -35, 48, -30, 8, -2, -12, 24, -56, 41, -4, -42, -33, 41, -19, -3, 21, -14, -2, 6, 24, 17, -59, 3, 57, 9, 4, 15, -21, 0, 31, -4, 62, -10, 15, -1, 19, -15, -7, -5, 2, 22, 10, 9, 14, -10, 0, 63, 17, 16, -9, 7, 5, 5, 13, -4, -46, 13, 17, -7, -15, -22, -14, 29, -31, 4, 0, 23, 19, 34, -76, -46, -38, -36, -45, -32, -49, -53, -26, -49, -44, -28, 12, -21, 14, 42, 40, 54, -15, 4, 10, 37, -19, -44, 17, -29, -8, -55, 26, -24, -4, 20, 26, 102, -18, 3, -3, -10, -38, -13, 2, 32, -34, 29, 12, -3, 25, 20, 50, -30, 27, 15, 18, -31, -6, 23, -8, -8, 11, 14, 21, 19, -78, -25, 19, 69, -33, -39, 0, 11, 44, 38, 0, -7, 40, 14, 37, 16, 15, 16, 13, 24, 28, -46, 41, -17, 55, 28, 8, -5, 34, -13, 25, -16, -3, -65, -55, 32, 15, -12, 24, 15, -21, -31, 5, 71, -39, -30, 30, -51, -22, -40, 21, 47, 28, -31, -11, 32, -77, -25, 7, 15, -20, -9, -13, 46, 12, 26, 13, -1, -8, 33, 44, -20, 18, 55, 39, 8, 34, -24, 12, -15, -1, 26, 25, -61, 5, 30, -40, 60, -22, 18, 6, 43, -54, 26, -9, 18, 64, -15, 12, -1, -41, -19, -17, 90, 23, -47, 12, 3, 32, -7, 19, 33, -31, 1, 15, 11, 28, -7, 3, -10, 26, 14, 11, -4, 62, 9, -29, 6, -27, -37, -9, -1, -21, -37, 7, -15, 19, 53, 42, -39, 10, 48, -12, 15, -46, 41, 23, 23, -16, 33, 5, -37, -58, 12, -17, 21, 53, 55, 37, 5, 38, -87, 7, -22, -29, 42, 26, 0, 69, -1, -48, -15, 38, 24, -15, 10, 44, -5, -44, 17, 41, -11, -34, 6, -27, 27, -37, 8, 27, -54, 2, -5, 9, 8, 16, -3, 1, -16, 23, 51, 12, 20, -20, 7, 15, -22, 39, 14, 29, 30, -63, 3, -21, -17, 15, -22, 41, -31, 21, 5, 21, -53, -26, 36, 19, -4, -35, 56, -14, 20, -16, -9, 12, 25, -18, -2, -3, 20, 3, -32, -15, 11, -4, 14, -35, -55, -4, -8, -51, 32, 7, 83, -6, -38, 27, 16, -4, -17, -36, 16, -3, 7, -35, -16, -26, 26, -22, 18, 30, -39, -29, 1, -35, 38, 3, 69, -6, -8, -28, 1, -34, 28, 18, -13, -5, 19, -27, 45, 23, -10, 29, -19, -17, -10, 11, -27, 33, -18, -62, 68, 24, 5, -13, -19, -12, -13, -65, -16, -6, -2, -4, -11, 65, -15, -20, 19, 34, -38, -48, 97}

#define TENSOR_GRU_1_GRU_CELL_1_RECURRENT_KERNEL_0_DEC_BITS {8}

#define TENSOR_GRU_1_GRU_CELL_1_BIAS_0 {13, 40, -33, 25, -16, 8, 1, 17, 77, 9, 22, 12, -9, 17, -1, -52, -4, 11, 11, 1, -23, -10, -4, -30, 12, 7, 9, -2, -8, 46, -14, 9, 64, 11, 1, 9, 37, 12, 29, 37, 13, 59, 43, 45, -30, 39, 35, 24, -5, 38, 39, 17, 47, 66, 14, -10, 13, 14, -4, 44, 34, 26, 21, 11, -4, -2, -3, -2, -3, -1, 3, -2, 0, -4, 3, -2, -4, 1, 1, -3, 5, -6, -8, 4, -10, -5, -2, 6, 2, -1, 2, -3, -1, 0, 4, 8, 13, 40, -33, 25, -16, 8, 1, 17, 77, 9, 22, 12, -9, 17, -1, -52, -4, 11, 11, 1, -23, -10, -4, -30, 12, 7, 9, -2, -8, 46, -14, 9, 64, 11, 1, 9, 37, 12, 29, 37, 13, 59, 43, 45, -30, 39, 35, 24, -5, 38, 39, 17, 47, 66, 14, -10, 13, 14, -4, 44, 34, 26, 21, 11, -4, -2, -2, -2, -3, -1, 3, -4, 0, -4, 3, -2, -3, 1, 0, -3, 5, -6, -7, 4, -10, -5, -2, 6, 3, -1, 2, -4, -2, 0, 4, 8}

#define TENSOR_GRU_1_GRU_CELL_1_BIAS_0_DEC_BITS {9}

#define GRU_1_BIAS_LSHIFT {6}

#define GRU_1_OUTPUT_RSHIFT {8}

